/*
 * Copyright (c) 2021 Synopsys
 *
 * SPDX-License-Identifier: Apache-2.0
 */

#include "har_smartphone_constants.h"

/* -------------------------------------------------------------------------- */
/*                        Tensors constants definition                        */
/* -------------------------------------------------------------------------- */

/* ----------------------------- FC1_W Constants ---------------------------- */
const w_type _W L1_fc_wt_buf[FC1_W_ELEMENTS] = {
	QW1(-0.2528931797), QW1(-0.0731880069), QW1(-0.0815829113), QW1(-0.2450282574),
	QW1(-0.3207346201), QW1(-0.4913792610), QW1(-0.3024744689), QW1(+0.0662552714),
	QW1(-0.0681910217), QW1(-0.1858948618), QW1(+0.0562708117), QW1(-0.0516818091),
	QW1(-0.0289789606), QW1(+0.1344855577), QW1(-0.0653230324), QW1(-0.0301084593),
	QW1(+0.0967470706), QW1(+0.0813659802), QW1(-0.1897677481), QW1(+0.0770514607),
	QW1(+0.0696169287), QW1(+0.1417022347), QW1(-0.1838132292), QW1(+0.2217336148),
	QW1(-0.1286581308), QW1(-0.1658318192), QW1(+0.0194053203), QW1(-0.1335870624),
	QW1(-0.0532842390), QW1(+0.0347948112), QW1(-0.1752817631), QW1(+0.0210932195),
	QW1(-0.0013969400), QW1(+0.8123219013), QW1(+0.4771555662), QW1(+0.0566441007),
	QW1(+0.3203385472), QW1(-0.0688764527), QW1(-0.0663079768), QW1(+0.0382047705),
	QW1(+0.2147796452), QW1(+0.0262343697), QW1(+0.8772106171), QW1(-0.1203993335),
	QW1(+0.1690435261), QW1(-0.1394527555), QW1(+0.1317699999), QW1(+0.0609715395),
	QW1(+0.7765504122), QW1(+0.0393867791), QW1(+0.1291142553), QW1(+0.3150165975),
	QW1(+0.4931899607), QW1(-0.3508962691), QW1(+0.1031954065), QW1(-0.0026110599),
	QW1(+0.0176659394), QW1(+0.2753497660), QW1(+0.2148625404), QW1(-0.2265829891),
	QW1(+0.2665102780), QW1(+0.4164429605), QW1(-0.5209885240), QW1(-0.0425048210),
	QW1(-0.0808300972), QW1(-0.0138839502), QW1(-0.0803922564), QW1(-0.0506810583),
	QW1(-0.0776390731), QW1(+0.4469721913), QW1(-0.0586513802), QW1(-0.3593197763),
	QW1(+0.0335708112), QW1(+0.0385848507), QW1(-0.1182296798), QW1(+0.1064919829),
	QW1(+0.2364259213), QW1(-0.1194311231), QW1(-0.1633418500), QW1(-0.2021554559),
	QW1(-0.2090561539), QW1(+0.4230533838), QW1(+0.0357713997), QW1(+0.0331109017),
	QW1(+0.2592968643), QW1(-0.0060485499), QW1(+0.0553902090), QW1(+0.8191369176),
	QW1(-0.1200083196), QW1(+0.3682940602), QW1(-0.2915610373), QW1(+0.0330126099),
	QW1(-0.1568462998), QW1(-0.8097704053), QW1(+0.0085653402), QW1(-0.0639835224),
	QW1(-0.1509037316), QW1(-0.1153418422), QW1(-0.0123855099), QW1(+0.4570735395),
	QW1(-0.1073283926), QW1(-0.2609229684), QW1(+0.1764430255), QW1(+0.3736888170),
	QW1(-0.0298650302), QW1(+0.1675981432), QW1(-0.8031340241), QW1(-0.1526706219),
	QW1(+0.2273686826), QW1(+0.0039069802), QW1(-0.0394712612), QW1(+0.0022524099),
	QW1(+0.0197391994), QW1(-0.0067088199), QW1(+0.6509838700), QW1(-0.2192705274),
	QW1(+0.1592810005), QW1(-0.2244673520), QW1(-0.0303729195), QW1(-0.0809669867),
	QW1(-0.3453700244), QW1(-0.0612812787), QW1(+0.2024276257), QW1(+0.0070849801),
	QW1(-0.1308022290), QW1(+0.0025030500), QW1(+0.5306299329), QW1(-0.0937600285),
	QW1(-0.1442458928), QW1(+0.1679325104), QW1(-0.0950674415), QW1(-0.0102188904),
	QW1(+0.2609377503), QW1(-0.7596778870), QW1(-0.0257293601), QW1(-0.3278216422),
	QW1(+0.1856725514), QW1(-0.0349695385), QW1(+0.5391024947), QW1(-0.2464674413),
	QW1(+0.1434514225), QW1(-0.7279387712), QW1(+0.1076786667), QW1(+0.0310701001),
	QW1(+0.0327266194), QW1(+0.0316159092), QW1(-0.0756972879), QW1(+0.0317131095),
	QW1(-0.1042484567), QW1(-0.1795937270), QW1(+0.0476342402), QW1(-0.2592580616),
	QW1(+0.7163603306), QW1(-0.0966597125), QW1(-0.0730173513), QW1(+0.1177839786),
	QW1(-0.1122117266), QW1(-0.2874677181), QW1(+0.0692538321), QW1(+0.2454416007),
	QW1(+0.1743095666), QW1(-0.1829779446), QW1(-0.0094771897), QW1(-0.0425730087),
	QW1(+0.0398386084), QW1(-0.2275350094), QW1(-0.1407870352), QW1(+0.2724414170),
	QW1(+0.4825140536), QW1(-0.1714281440), QW1(-0.0216524098), QW1(-0.5122691393),
	QW1(+0.0477931201), QW1(+0.0574397594), QW1(-0.0904695913), QW1(+0.0921080634),
	QW1(-0.1731263101), QW1(-0.8526056409), QW1(+0.7665767670), QW1(-0.2159008384),
	QW1(+0.1826520562), QW1(-0.1150214225), QW1(-0.1756524593), QW1(+0.0971396416),
	QW1(+0.2152202129), QW1(-0.1957843453), QW1(+0.0371427685), QW1(-0.4731867611),
	QW1(-0.7926432490), QW1(-0.0239468198), QW1(-0.0078064799), QW1(-0.1389939338),
	QW1(-0.1984991729), QW1(-0.1811619252), QW1(-0.3432552516), QW1(-0.3098937869),
	QW1(-0.0597372688), QW1(-0.1242789924), QW1(+0.2900665700), QW1(-0.0706699565),
	QW1(-0.0401662290), QW1(-0.0801487863), QW1(+0.0614905506), QW1(+0.0257026795),
	QW1(+1.2199072838), QW1(+0.0368951894), QW1(+0.1334435940), QW1(-0.1767133772),
	QW1(+0.0960951075), QW1(+0.2034469992), QW1(-0.0337349102), QW1(-0.0911793783),
	QW1(+0.0453431718), QW1(+0.2941758633), QW1(+0.7234479785), QW1(+0.3144517243),
	QW1(+0.0263383500), QW1(-0.0815490633), QW1(-0.0671432316), QW1(-0.0598515496),
	QW1(-0.1418247521), QW1(+0.1388776004), QW1(+0.4136851132), QW1(-0.1682841480),
	QW1(-0.0350758098), QW1(-0.5875392556), QW1(+0.0008731600), QW1(+0.0791238472),
	QW1(+0.0222137198), QW1(+0.7841237187), QW1(+0.4628643095), QW1(-0.5767792463),
	QW1(-0.2185679674), QW1(+0.0944062322), QW1(-0.1252903640), QW1(+0.0720576569),
	QW1(+0.1417770684), QW1(+0.1106825992), QW1(-0.0079353703), QW1(-0.0708139837),
	QW1(+0.1780906767), QW1(+0.3765420020), QW1(-0.0450263396), QW1(+0.0468644388),
	QW1(-0.0838841870), QW1(-0.1747271568), QW1(-0.0114855403), QW1(+0.1377532482),
	QW1(-0.3005266786), QW1(+0.1964931786), QW1(-0.1554675698), QW1(-0.3891941607),
	QW1(+0.1221022829), QW1(+0.0384095795), QW1(-0.0704981163), QW1(+0.2506892979),
	QW1(-0.0049990900), QW1(-0.0591575690), QW1(+0.3561766744), QW1(-0.4400277436),
	QW1(+0.1547887623), QW1(+0.2574953139), QW1(-0.0549155697), QW1(-0.0314377211),
	QW1(-0.0299104098), QW1(-0.1021733806), QW1(+0.2810387909), QW1(+0.4520330429),
	QW1(-0.3388704956), QW1(-0.0257582609), QW1(+0.1418716609), QW1(+0.0227173306),
	QW1(-0.0101377098), QW1(+0.0801590085), QW1(+0.0004624100), QW1(+0.0481924713),
	QW1(+0.2193934172), QW1(-0.0853070095), QW1(+0.1753129512), QW1(-0.2241983265),
	QW1(-0.0103189303), QW1(+0.0122891897), QW1(+0.1336407810), QW1(-0.4229379594),
	QW1(+0.2157990634), QW1(-0.2094660103), QW1(+0.1030788124), QW1(-0.1211371496)
};

/* ----------------------------- FC1_B Constants ---------------------------- */

const w_type _W L1_fc_bias_buf[FC1_B_ELEMENTS] = {
	QB1(+0.3180780411), QB1(+1.1735091209), QB1(+0.4906845689), QB1(+1.0631378889),
	QB1(+1.0117846727), QB1(-0.2308579981), QB1(+0.2222036421), QB1(+0.6114380360),
	QB1(+0.2294445485), QB1(-0.2723376751), QB1(+0.1561199427), QB1(-0.0003428600),
	QB1(+0.9904463291), QB1(+0.9482963681), QB1(-0.1349299550), QB1(+0.7557322383),
	QB1(+0.0612899400), QB1(-0.0362296104), QB1(+0.1226629019), QB1(+1.7334715128),
	QB1(+0.5359395742), QB1(+0.3292123079), QB1(+1.1303397417), QB1(+0.9369598627),
	QB1(-0.2477667779), QB1(+0.5468549132), QB1(+0.9778763056), QB1(+0.1073319316),
	QB1(+0.5186800957), QB1(+0.2172211409), QB1(-0.1181705669), QB1(+0.2445536405)
};

/* ---------------------------- CONV2_W Constants --------------------------- */

const w_type _W L2_lstm_wt_buf[LSTM2_W_ELEMENTS] = {
	QW2(+0.0020699601), QW2(-0.0117022200), QW2(-0.0009580400), QW2(-0.0211340897),
	QW2(-0.0234568398), QW2(+0.0008160900), QW2(-0.0052217501), QW2(-0.0151803996),
	QW2(+0.0008511500), QW2(-0.0021872199), QW2(+0.0031368900), QW2(-0.0002276500),
	QW2(-0.0201533809), QW2(-0.0111630196), QW2(+0.0008662100), QW2(+0.0026174500),
	QW2(+0.0020792000), QW2(+0.0008901200), QW2(-0.0070655602), QW2(-0.0047850301),
	QW2(-0.0116438800), QW2(+0.0015721300), QW2(-0.0284683108), QW2(-0.0077114999),
	QW2(+0.0015409900), QW2(+0.0026558901), QW2(-0.0108396299), QW2(-0.0032038300),
	QW2(-0.0095644696), QW2(-0.0078686299), QW2(+0.0011227001), QW2(+0.0018904600),
	QW2(+0.0013910200), QW2(-0.0005426000), QW2(-0.0020107599), QW2(-0.0011771600),
	QW2(+0.0005811600), QW2(-0.0019288500), QW2(+0.0014680100), QW2(+0.0069866800),
	QW2(-0.0031453900), QW2(-0.0027709401), QW2(-0.0224592909), QW2(-0.0072559500),
	QW2(-0.0002259700), QW2(+0.0070971199), QW2(-0.0019245500), QW2(+0.0009194400),
	QW2(+0.0006389900), QW2(+0.0038264601), QW2(+0.0061955401), QW2(-0.0077004498),
	QW2(+0.0079110702), QW2(-0.0091099199), QW2(+0.0074610799), QW2(+0.0008400600),
	QW2(-0.0003228400), QW2(-0.0009122100), QW2(+0.0078081000), QW2(+0.0001447000),
	QW2(-0.0008584800), QW2(-0.0004715500), QW2(-0.0010986900), QW2(+0.0130534396),
	QW2(+0.0003347300), QW2(-0.0393683203), QW2(-0.0066371001), QW2(-0.0599721894),
	QW2(-0.0622703098), QW2(+0.0008714800), QW2(-0.0092162099), QW2(-0.0366164893),
	QW2(+0.0001697000), QW2(-0.0163118709), QW2(-0.0005417500), QW2(+0.0003118600),
	QW2(-0.0555958897), QW2(-0.0337899588), QW2(+0.0005634900), QW2(+0.0011373000),
	QW2(+0.0005280600), QW2(-0.0000540900), QW2(-0.0194835793), QW2(-0.0262757391),
	QW2(-0.0158501901), QW2(+0.0002001900), QW2(-0.0736295581), QW2(-0.0401417091),
	QW2(+0.0001511900), QW2(+0.0005480900), QW2(-0.0386184417), QW2(-0.0028171600),
	QW2(-0.0318095908), QW2(-0.0222398695), QW2(+0.0002470000), QW2(+0.0007758300),
	QW2(+0.0002482900), QW2(-0.0000052000), QW2(-0.0005096600), QW2(-0.0005731200),
	QW2(+0.0002936000), QW2(-0.0004756000), QW2(+0.0003864600), QW2(+0.0118805300),
	QW2(-0.0014307400), QW2(-0.0125225503), QW2(-0.0139999902), QW2(-0.0149982702),
	QW2(+0.0000010000), QW2(+0.0271923691), QW2(-0.0004551800), QW2(+0.0002359400),
	QW2(+0.0003681100), QW2(+0.0086757503), QW2(-0.0014805200), QW2(-0.0283481609),
	QW2(-0.0053694500), QW2(-0.0013025600), QW2(+0.0281667095), QW2(+0.0001625400),
	QW2(-0.0000691300), QW2(-0.0002257200), QW2(-0.0016890300), QW2(-0.0002085300),
	QW2(-0.0001361400), QW2(-0.0001255400), QW2(+0.0157263502), QW2(+0.0202141497),
	QW2(+0.0020397599), QW2(-0.0241447594), QW2(-0.0010072800), QW2(-0.0419511683),
	QW2(-0.0436077304), QW2(+0.0071136402), QW2(-0.0065072598), QW2(-0.0233333707),
	QW2(+0.0028802301), QW2(-0.0065619601), QW2(-0.0009061900), QW2(+0.0052152900),
	QW2(-0.0375215784), QW2(-0.0193793308), QW2(+0.0049497499), QW2(+0.0081397798),
	QW2(+0.0021516001), QW2(+0.0024676900), QW2(-0.0109911002), QW2(-0.0135079296),
	QW2(-0.0096702203), QW2(+0.0014260000), QW2(-0.0548122488), QW2(-0.0241828095),
	QW2(+0.0030590601), QW2(+0.0036948600), QW2(-0.0239630509), QW2(-0.0005902700),
	QW2(-0.0179830808), QW2(-0.0115464795), QW2(+0.0018055401), QW2(+0.0045872200),
	QW2(+0.0033192399), QW2(-0.0008735800), QW2(-0.0044931099), QW2(-0.0030301199),
	QW2(+0.0007835400), QW2(-0.0040396401), QW2(+0.0024494501), QW2(+0.0060521299),
	QW2(-0.0018435600), QW2(+0.0001674000), QW2(-0.0038784300), QW2(-0.0100586200),
	QW2(-0.0004622100), QW2(+0.0140319699), QW2(-0.0032733800), QW2(+0.0023424700),
	QW2(+0.0015448000), QW2(+0.0038292401), QW2(-0.0022155801), QW2(-0.0153641999),
	QW2(-0.0051592700), QW2(-0.0070007802), QW2(+0.0154041201), QW2(+0.0019060801),
	QW2(-0.0008603700), QW2(-0.0021896299), QW2(-0.0036493901), QW2(+0.0001793000),
	QW2(-0.0016154600), QW2(-0.0015447700), QW2(+0.0068350001), QW2(+0.0088419300),
	QW2(+0.0008295900), QW2(-0.0238599703), QW2(-0.0008396800), QW2(-0.0416859686),
	QW2(-0.0440691784), QW2(+0.0045224898), QW2(-0.0039486699), QW2(-0.0217249598),
	QW2(+0.0013535300), QW2(-0.0036108200), QW2(-0.0009071500), QW2(+0.0030019300),
	QW2(-0.0379054397), QW2(-0.0184901692), QW2(+0.0028696801), QW2(+0.0040302300),
	QW2(+0.0010651500), QW2(+0.0020092600), QW2(-0.0086954301), QW2(-0.0138774402),
	QW2(-0.0089525199), QW2(+0.0004051200), QW2(-0.0559009388), QW2(-0.0228976496),
	QW2(+0.0019166600), QW2(+0.0012974100), QW2(-0.0229720492), QW2(+0.0000442600),
	QW2(-0.0165103804), QW2(-0.0092799198), QW2(+0.0013000200), QW2(+0.0025095700),
	QW2(+0.0015392700), QW2(-0.0004436500), QW2(-0.0019246400), QW2(-0.0015418500),
	QW2(+0.0002566800), QW2(-0.0017762500), QW2(+0.0012051100), QW2(+0.0031627200),
	QW2(+0.0032433099), QW2(+0.0016198400), QW2(-0.0044494299), QW2(-0.0046153399),
	QW2(-0.0003583100), QW2(+0.0122484202), QW2(-0.0015795100), QW2(+0.0010863600),
	QW2(+0.0006832800), QW2(+0.0031922399), QW2(-0.0014306901), QW2(-0.0142494198),
	QW2(-0.0027722900), QW2(-0.0033284200), QW2(+0.0130664902), QW2(+0.0009247900),
	QW2(-0.0003573300), QW2(-0.0010652500), QW2(-0.0022103100), QW2(+0.0001653800),
	QW2(-0.0008145800), QW2(-0.0007792900), QW2(+0.0049060700), QW2(+0.0088726403),
	QW2(+0.0003820400), QW2(-0.0167389903), QW2(-0.0033276700), QW2(-0.0299078096),
	QW2(-0.0297973007), QW2(-0.0005562200), QW2(-0.0053002499), QW2(-0.0145783899),
	QW2(+0.0001919500), QW2(-0.0056832600), QW2(+0.0008194800), QW2(+0.0002112200),
	QW2(-0.0253601391), QW2(-0.0128732100), QW2(+0.0006639200), QW2(+0.0000958000),
	QW2(+0.0001043800), QW2(-0.0008194300), QW2(-0.0068809800), QW2(-0.0123746702),
	QW2(-0.0066861901), QW2(+0.0003693300), QW2(-0.0395600386), QW2(-0.0179123301),
	QW2(-0.0000185600), QW2(+0.0006354500), QW2(-0.0168196298), QW2(-0.0020224799),
	QW2(-0.0117373504), QW2(-0.0078187501), QW2(-0.0000220800), QW2(+0.0000643100),
	QW2(+0.0001914500), QW2(-0.0001694000), QW2(-0.0006008700), QW2(-0.0003097300),
	QW2(+0.0000391000), QW2(-0.0006152600), QW2(+0.0000836600), QW2(-0.0028087699),
	QW2(-0.0008600900), QW2(-0.0065503302), QW2(-0.0061583002), QW2(-0.0068593998),
	QW2(-0.0004499700), QW2(+0.0099751903), QW2(-0.0002824200), QW2(+0.0008738500),
	QW2(+0.0001870400), QW2(-0.0044247299), QW2(+0.0038744200), QW2(-0.0103444103),
	QW2(+0.0010424301), QW2(-0.0064236498), QW2(+0.0103764404), QW2(+0.0000767400),
	QW2(+0.0000053300), QW2(-0.0003296200), QW2(+0.0048280000), QW2(+0.0000277700),
	QW2(-0.0004505700), QW2(-0.0002836700), QW2(+0.0054208799), QW2(+0.0053088600),
	QW2(+0.0012504000), QW2(-0.0284368694), QW2(-0.0002971700), QW2(-0.0490363017),
	QW2(-0.0515623093), QW2(+0.0062441900), QW2(-0.0023270501), QW2(-0.0258752201),
	QW2(+0.0019967100), QW2(-0.0076718898), QW2(-0.0012964400), QW2(+0.0040098098),
	QW2(-0.0446788818), QW2(-0.0232082102), QW2(+0.0036040801), QW2(+0.0064150402),
	QW2(+0.0009664900), QW2(+0.0027676299), QW2(-0.0115509797), QW2(-0.0141214002),
	QW2(-0.0072663301), QW2(+0.0006690300), QW2(-0.0635221675), QW2(-0.0288524292),
	QW2(+0.0023691701), QW2(+0.0026065900), QW2(-0.0275062006), QW2(+0.0014165500),
	QW2(-0.0214052107), QW2(-0.0130045004), QW2(+0.0016205000), QW2(+0.0029120899),
	QW2(+0.0021682701), QW2(-0.0006611200), QW2(-0.0027993601), QW2(-0.0016914899),
	QW2(+0.0007698300), QW2(-0.0025380601), QW2(+0.0015023299), QW2(+0.0127053699),
	QW2(+0.0022201701), QW2(-0.0034542601), QW2(-0.0091865500), QW2(-0.0103158597),
	QW2(-0.0004387500), QW2(+0.0162521098), QW2(-0.0021659399), QW2(+0.0013813400),
	QW2(+0.0008760200), QW2(+0.0082877204), QW2(-0.0044320798), QW2(-0.0175848603),
	QW2(-0.0057766899), QW2(-0.0023150600), QW2(+0.0173163507), QW2(+0.0013689400),
	QW2(-0.0005528100), QW2(-0.0013006500), QW2(-0.0056839301), QW2(+0.0002662000),
	QW2(-0.0009750600), QW2(-0.0008396500), QW2(+0.0104457401), QW2(+0.0153220398),
	QW2(-0.0000439500), QW2(-0.0068213399), QW2(+0.0011625200), QW2(-0.0131934499),
	QW2(-0.0137592703), QW2(+0.0012444600), QW2(-0.0002917300), QW2(-0.0073560602),
	QW2(+0.0000523000), QW2(+0.0018350200), QW2(-0.0007487100), QW2(+0.0003490600),
	QW2(-0.0118475296), QW2(-0.0046999999), QW2(+0.0000618200), QW2(+0.0010397000),
	QW2(-0.0007862000), QW2(+0.0016372900), QW2(-0.0005512700), QW2(-0.0043983702),
	QW2(-0.0032661799), QW2(-0.0001283000), QW2(-0.0173035506), QW2(-0.0057492098),
	QW2(+0.0008129000), QW2(-0.0002511900), QW2(-0.0071791098), QW2(+0.0011534900),
	QW2(-0.0035472901), QW2(-0.0008126100), QW2(+0.0001078700), QW2(+0.0000960100),
	QW2(+0.0002171800), QW2(+0.0000205900), QW2(+0.0000841300), QW2(+0.0000392300),
	QW2(+0.0002502700), QW2(+0.0000347500), QW2(+0.0001167100), QW2(+0.0011426701),
	QW2(+0.0012502000), QW2(+0.0020562001), QW2(-0.0108010899), QW2(+0.0028945699),
	QW2(-0.0001094700), QW2(+0.0022559899), QW2(+0.0001683800), QW2(+0.0001075700),
	QW2(-0.0000251300), QW2(+0.0000616100), QW2(+0.0002400200), QW2(-0.0034261600),
	QW2(-0.0020870301), QW2(+0.0036880600), QW2(+0.0030686101), QW2(-0.0000705700),
	QW2(-0.0000809600), QW2(+0.0000373000), QW2(+0.0010064000), QW2(+0.0000331600),
	QW2(-0.0001223100), QW2(+0.0000015000), QW2(+0.0015722800), QW2(-0.0000032200),
	QW2(+0.0018985000), QW2(+0.0585513003), QW2(+0.0022066201), QW2(+0.0809277073),
	QW2(+0.0802220330), QW2(-0.0213341508), QW2(+0.0073907198), QW2(+0.0468675196),
	QW2(+0.0007467800), QW2(+0.0120740598), QW2(+0.0074152099), QW2(+0.0056902501),
	QW2(+0.0685488135), QW2(+0.0568979196), QW2(-0.0065223700), QW2(-0.0178925395),
	QW2(+0.0081957104), QW2(+0.0012741900), QW2(+0.0314263217), QW2(+0.0395763516),
	QW2(+0.0217335597), QW2(+0.0030638699), QW2(+0.0959763229), QW2(+0.0485544018),
	QW2(+0.0004018000), QW2(-0.0033732699), QW2(+0.0420196801), QW2(+0.0177903995),
	QW2(+0.0319507904), QW2(+0.0234284103), QW2(+0.0009502700), QW2(-0.0083025796),
	QW2(+0.0012536501), QW2(-0.0016980100), QW2(-0.0145979300), QW2(-0.0106201796),
	QW2(+0.0039277002), QW2(-0.0116832796), QW2(+0.0048585800), QW2(+0.0108857602),
	QW2(+0.0063048899), QW2(-0.0014272900), QW2(+0.0776573569), QW2(+0.0504700318),
	QW2(-0.0007940100), QW2(-0.0380905606), QW2(-0.0089937402), QW2(+0.0077777598),
	QW2(+0.0018587400), QW2(+0.0224387608), QW2(-0.0183388293), QW2(+0.0428126790),
	QW2(-0.0694776773), QW2(+0.0784985498), QW2(-0.0456611514), QW2(+0.0054452401),
	QW2(-0.0015177800), QW2(-0.0067127198), QW2(+0.0044459798), QW2(-0.0000410000),
	QW2(-0.0027828100), QW2(-0.0059201499), QW2(-0.0464861207), QW2(-0.0723076835),
	QW2(+0.0099234199), QW2(+0.0620219000), QW2(+0.0120724197), QW2(+0.0908480063),
	QW2(+0.0855610967), QW2(+0.0038279600), QW2(+0.0237783007), QW2(+0.0647079125),
	QW2(+0.0067039300), QW2(+0.0020691401), QW2(+0.0288445391), QW2(+0.0169286095),
	QW2(+0.0766354427), QW2(+0.0673725680), QW2(+0.0104310699), QW2(+0.0059981798),
	QW2(-0.0020864899), QW2(+0.0150087802), QW2(+0.0373430215), QW2(+0.0624353886),
	QW2(+0.0551301613), QW2(+0.0088030798), QW2(+0.1102552265), QW2(+0.0454321094),
	QW2(+0.0108688604), QW2(+0.0168892108), QW2(+0.0515162684), QW2(+0.0287412498),
	QW2(+0.0299928598), QW2(+0.0350311510), QW2(-0.0015420200), QW2(+0.0057322299),
	QW2(+0.0047565899), QW2(-0.0008804900), QW2(-0.0048970100), QW2(-0.0024767399),
	QW2(+0.0015414900), QW2(-0.0043128999), QW2(+0.0020920699), QW2(+0.0280296206),
	QW2(-0.0087692002), QW2(-0.0231980402), QW2(-0.0043603200), QW2(-0.0313041285),
	QW2(+0.0002782700), QW2(-0.0433534309), QW2(-0.0032142601), QW2(+0.0022743000),
	QW2(+0.0009949800), QW2(+0.0239765197), QW2(-0.0327361412), QW2(+0.0440235510),
	QW2(+0.0465599187), QW2(-0.0338072106), QW2(-0.0425336994), QW2(+0.0019564701),
	QW2(-0.0016422600), QW2(-0.0021199400), QW2(-0.0152166998), QW2(+0.0001526900),
	QW2(-0.0012247900), QW2(-0.0011632000), QW2(-0.0256244596), QW2(+0.0164391194),
	QW2(-0.0141695896), QW2(-0.0199310705), QW2(+0.0720270276), QW2(-0.0500636883),
	QW2(-0.0772308633), QW2(-0.1459921151), QW2(-0.1422771662), QW2(-0.0296494309),
	QW2(-0.1037771329), QW2(-0.0100044804), QW2(-0.0864501372), QW2(-0.1445894390),
	QW2(-0.0103513896), QW2(+0.0455480814), QW2(-0.0501409806), QW2(+0.0226657894),
	QW2(-0.0134753399), QW2(+0.0382827707), QW2(+0.0664041415), QW2(-0.0182862394),
	QW2(-0.1572488993), QW2(-0.0064060702), QW2(-0.0735886395), QW2(+0.0716848224),
	QW2(+0.0251347199), QW2(-0.0917597413), QW2(+0.0282090697), QW2(-0.1558026522),
	QW2(-0.0147624305), QW2(+0.0595019795), QW2(+0.0005542600), QW2(-0.0189074595),
	QW2(-0.0146305701), QW2(+0.0004575200), QW2(-0.0041228100), QW2(-0.0105118304),
	QW2(-0.0015127100), QW2(+0.0004625200), QW2(+0.0004417800), QW2(-0.1230022013),
	QW2(+0.3104277849), QW2(+0.0046501402), QW2(+0.1245998070), QW2(+0.6428537369),
	QW2(-0.0157345999), QW2(+0.0159662701), QW2(-0.0024098000), QW2(+0.0052606799),
	QW2(+0.0055311201), QW2(-0.1187756881), QW2(-0.0146590900), QW2(-0.0099624302),
	QW2(-0.1342956722), QW2(+0.0976407230), QW2(-0.0615880601), QW2(+0.0028311899),
	QW2(+0.0041146302), QW2(-0.0071646902), QW2(-0.0012361699), QW2(+0.0032314700),
	QW2(+0.0017222899), QW2(-0.0159316305), QW2(+0.0698342994), QW2(-0.1696702242),
	QW2(+0.0048607001), QW2(+0.0526187606), QW2(+0.0240168907), QW2(+0.0712005273),
	QW2(+0.0585512407), QW2(+0.0088497298), QW2(+0.0208734907), QW2(+0.0491219014),
	QW2(+0.0011413700), QW2(+0.0102231903), QW2(+0.0024021701), QW2(+0.0006826700),
	QW2(+0.0576047190), QW2(+0.0530386195), QW2(+0.0100131501), QW2(+0.0157225393),
	QW2(-0.0037758600), QW2(+0.0203349702), QW2(+0.0324929506), QW2(+0.0574914403),
	QW2(+0.0274739191), QW2(+0.0040983800), QW2(+0.0762144625), QW2(+0.0553609505),
	QW2(+0.0111746304), QW2(-0.0075501599), QW2(+0.0521713011), QW2(+0.0153189097),
	QW2(+0.0287659895), QW2(+0.0297424104), QW2(+0.0032919201), QW2(+0.0128646102),
	QW2(+0.0063462802), QW2(-0.0022422399), QW2(-0.0092335800), QW2(-0.0063125999),
	QW2(+0.0056146602), QW2(-0.0068285302), QW2(+0.0032020200), QW2(+0.0472481400),
	QW2(-0.0056858598), QW2(+0.0252911709), QW2(+0.0098198699), QW2(-0.0060361600),
	QW2(-0.0013926500), QW2(-0.0432880409), QW2(-0.0059618298), QW2(+0.0051413900),
	QW2(+0.0019307900), QW2(+0.0423225500), QW2(-0.0148638096), QW2(+0.0424170382),
	QW2(-0.0211519394), QW2(+0.0189066399), QW2(-0.0487894602), QW2(+0.0037902400),
	QW2(-0.0016641300), QW2(-0.0040208902), QW2(-0.0416889004), QW2(+0.0018991700),
	QW2(-0.0020170200), QW2(-0.0062095402), QW2(-0.0100515103), QW2(+0.0246646907),
	QW2(-0.0009211800), QW2(+0.0807099715), QW2(+0.0250720792), QW2(+0.1106302068),
	QW2(+0.1087974533), QW2(+0.0103653800), QW2(+0.0318688899), QW2(+0.0542674810),
	QW2(+0.0138092795), QW2(+0.0250667091), QW2(-0.0026846800), QW2(+0.0119778505),
	QW2(+0.0940051973), QW2(+0.0574627705), QW2(-0.0010290900), QW2(+0.0201324504),
	QW2(+0.0157489795), QW2(-0.0021945499), QW2(+0.0226130392), QW2(+0.0807798505),
	QW2(+0.0271178000), QW2(-0.0011028200), QW2(+0.1317190230), QW2(+0.0807942823),
	QW2(+0.0019724499), QW2(+0.0174511392), QW2(+0.0768641829), QW2(+0.0126926498),
	QW2(+0.0479292311), QW2(+0.0258812904), QW2(+0.0073957699), QW2(-0.0007119100),
	QW2(+0.0086903404), QW2(+0.0018932200), QW2(-0.0040097800), QW2(-0.0038706800),
	QW2(-0.0054582101), QW2(-0.0035650099), QW2(+0.0030838400), QW2(+0.0169714503),
	QW2(-0.0047720200), QW2(+0.0252792109), QW2(-0.0150627298), QW2(-0.0066579301),
	QW2(-0.0009668600), QW2(-0.0476306789), QW2(-0.0001195000), QW2(+0.0028784701),
	QW2(+0.0021963699), QW2(+0.0129880300), QW2(-0.0003699000), QW2(+0.0476865396),
	QW2(+0.0428539999), QW2(-0.0201163907), QW2(-0.0535037406), QW2(-0.0028150300),
	QW2(-0.0033201701), QW2(-0.0020089501), QW2(+0.0428858511), QW2(-0.0069989301),
	QW2(-0.0026567001), QW2(-0.0017047100), QW2(-0.0193789806), QW2(+0.0235186797),
	QW2(+0.0003494000), QW2(-0.0141005302), QW2(-0.0021875501), QW2(-0.0255040806),
	QW2(-0.0256889705), QW2(+0.0001730900), QW2(-0.0042776600), QW2(-0.0134495199),
	QW2(+0.0000884300), QW2(-0.0030550500), QW2(+0.0002614900), QW2(-0.0001902300),
	QW2(-0.0217479300), QW2(-0.0111686597), QW2(-0.0000534700), QW2(+0.0002474100),
	QW2(+0.0001205600), QW2(-0.0002881100), QW2(-0.0059141000), QW2(-0.0105115296),
	QW2(-0.0067652902), QW2(+0.0002424400), QW2(-0.0342507288), QW2(-0.0138653005),
	QW2(-0.0000428400), QW2(+0.0003588500), QW2(-0.0142612904), QW2(-0.0014649900),
	QW2(-0.0092579899), QW2(-0.0062588602), QW2(-0.0001034100), QW2(+0.0001857700),
	QW2(+0.0001301500), QW2(-0.0000574200), QW2(-0.0001950400), QW2(-0.0002216500),
	QW2(+0.0000613200), QW2(-0.0003325300), QW2(+0.0001886300), QW2(-0.0054039098),
	QW2(-0.0006700400), QW2(+0.0014195100), QW2(-0.0012216500), QW2(-0.0011604900),
	QW2(+0.0000168000), QW2(+0.0085235601), QW2(-0.0002081100), QW2(+0.0001365100),
	QW2(+0.0001388400), QW2(-0.0036254700), QW2(+0.0007759400), QW2(-0.0087996405),
	QW2(+0.0002619100), QW2(-0.0019005500), QW2(+0.0084696598), QW2(+0.0001642100),
	QW2(-0.0000424300), QW2(-0.0001950700), QW2(+0.0015543700), QW2(+0.0000312900),
	QW2(-0.0001262200), QW2(-0.0000093100), QW2(+0.0013907800), QW2(+0.0013996800),
	QW2(+0.0010940999), QW2(-0.0471164510), QW2(+0.0184915606), QW2(+0.0392877907),
	QW2(-0.0851281434), QW2(-0.0017146900), QW2(-0.0058139898), QW2(+0.0497365408),
	QW2(-0.0015441600), QW2(+0.0077800299), QW2(-0.0019542400), QW2(-0.0013768700),
	QW2(-0.0335240997), QW2(+0.0624392591), QW2(+0.0022297699), QW2(+0.0011097300),
	QW2(+0.0080421297), QW2(+0.0091172997), QW2(+0.0595175214), QW2(-0.0439872518),
	QW2(+0.0019171500), QW2(+0.0007633300), QW2(-0.0022788099), QW2(+0.0223788004),
	QW2(+0.0052937898), QW2(-0.0004116500), QW2(+0.0265209693), QW2(-0.0010184000),
	QW2(-0.0256430991), QW2(+0.0522694588), QW2(+0.0023504000), QW2(-0.0009651200),
	QW2(+0.0015390801), QW2(-0.0002427500), QW2(-0.0013060099), QW2(-0.0016088201),
	QW2(-0.0026330701), QW2(-0.0029273301), QW2(+0.0018010400), QW2(-0.0070230798),
	QW2(+0.0041065901), QW2(-0.0065073702), QW2(+0.0140709598), QW2(+0.0164326001),
	QW2(-0.0002402400), QW2(-0.0083135497), QW2(-0.0007440900), QW2(+0.0017483800),
	QW2(+0.0013332400), QW2(+0.0037546200), QW2(-0.0034223900), QW2(+0.0076715900),
	QW2(+0.0089319004), QW2(-0.0038387501), QW2(-0.0533769988), QW2(-0.0005278400),
	QW2(-0.0008572000), QW2(-0.0005718800), QW2(+0.0002260400), QW2(-0.0011592400),
	QW2(-0.0012530300), QW2(-0.0002978900), QW2(-0.0058048302), QW2(-0.0003644200),
	QW2(+0.0021554099), QW2(-0.0164985396), QW2(+0.0022385500), QW2(-0.0328113213),
	QW2(-0.0351396017), QW2(+0.0034743701), QW2(+0.0011931100), QW2(-0.0139751798),
	QW2(+0.0016200400), QW2(-0.0020197600), QW2(-0.0004745900), QW2(+0.0026171801),
	QW2(-0.0292479303), QW2(-0.0120881600), QW2(+0.0023865600), QW2(+0.0049138698),
	QW2(+0.0034784700), QW2(+0.0024877100), QW2(-0.0042882501), QW2(-0.0057672998),
	QW2(-0.0017848900), QW2(+0.0016194400), QW2(-0.0453872196), QW2(-0.0159766003),
	QW2(+0.0017919000), QW2(+0.0021176301), QW2(-0.0154590700), QW2(+0.0025473901),
	QW2(-0.0110498499), QW2(-0.0048022000), QW2(+0.0015801600), QW2(+0.0029113800),
	QW2(+0.0023739100), QW2(-0.0007585600), QW2(-0.0045918901), QW2(-0.0033239899),
	QW2(+0.0006472000), QW2(-0.0039548799), QW2(+0.0022898400), QW2(+0.0100723896),
	QW2(-0.0002471400), QW2(+0.0039330898), QW2(-0.0037193000), QW2(-0.0057803001),
	QW2(-0.0002647600), QW2(+0.0063990802), QW2(-0.0028828201), QW2(+0.0021240199),
	QW2(+0.0018123400), QW2(+0.0023566701), QW2(-0.0028056800), QW2(-0.0074349502),
	QW2(-0.0024984500), QW2(-0.0012970500), QW2(+0.0074227201), QW2(+0.0015920399),
	QW2(-0.0006223300), QW2(-0.0022685900), QW2(-0.0028202001), QW2(+0.0001998100),
	QW2(-0.0015330800), QW2(-0.0016785200), QW2(+0.0038177799), QW2(+0.0057017300),
	QW2(+0.0005025700), QW2(-0.0210320093), QW2(-0.0028703299), QW2(-0.0365974605),
	QW2(-0.0382781401), QW2(+0.0021043101), QW2(-0.0035738300), QW2(-0.0187412798),
	QW2(+0.0005520700), QW2(-0.0042173699), QW2(+0.0004894400), QW2(+0.0016563700),
	QW2(-0.0329544283), QW2(-0.0163112897), QW2(+0.0016247700), QW2(+0.0021071199),
	QW2(+0.0010328100), QW2(-0.0011191100), QW2(-0.0093185604), QW2(-0.0116570499),
	QW2(-0.0066558602), QW2(+0.0003891300), QW2(-0.0493557006), QW2(-0.0190692898),
	QW2(+0.0000429300), QW2(+0.0010538100), QW2(-0.0202330500), QW2(-0.0013025301),
	QW2(-0.0130621605), QW2(-0.0087628001), QW2(-0.0004064500), QW2(+0.0010318900),
	QW2(+0.0002495900), QW2(-0.0002562400), QW2(-0.0018215000), QW2(-0.0012368800),
	QW2(+0.0004438600), QW2(-0.0015698000), QW2(+0.0009376500), QW2(-0.0045453301),
	QW2(+0.0003759300), QW2(-0.0044961399), QW2(-0.0010489700), QW2(-0.0011947700),
	QW2(-0.0003700400), QW2(+0.0080043199), QW2(-0.0012731100), QW2(+0.0009074600),
	QW2(+0.0006069200), QW2(+0.0005032000), QW2(+0.0018143500), QW2(-0.0099270502),
	QW2(+0.0006110600), QW2(-0.0021797600), QW2(+0.0096785398), QW2(+0.0006842300),
	QW2(-0.0001640300), QW2(-0.0008684400), QW2(-0.0025364400), QW2(+0.0001172600),
	QW2(-0.0005820400), QW2(-0.0006742400), QW2(+0.0067461799), QW2(+0.0016547299),
	QW2(+0.0002752100), QW2(-0.0154018803), QW2(-0.0000293000), QW2(-0.0326484405),
	QW2(-0.0348043703), QW2(+0.0008478900), QW2(-0.0018166500), QW2(-0.0143659804),
	QW2(+0.0002556100), QW2(-0.0007759400), QW2(-0.0008134700), QW2(+0.0007023600),
	QW2(-0.0285115894), QW2(-0.0111552496), QW2(+0.0006967500), QW2(+0.0012496200),
	QW2(+0.0011562100), QW2(+0.0005819400), QW2(-0.0040256400), QW2(-0.0078502996),
	QW2(-0.0055330698), QW2(+0.0001295200), QW2(-0.0476875193), QW2(-0.0138485497),
	QW2(+0.0004696400), QW2(+0.0003122100), QW2(-0.0149296103), QW2(+0.0000425600),
	QW2(-0.0093812002), QW2(-0.0046035498), QW2(+0.0005935000), QW2(+0.0005698600),
	QW2(+0.0006035700), QW2(-0.0002342000), QW2(-0.0010190200), QW2(-0.0007500200),
	QW2(+0.0001157800), QW2(-0.0008981100), QW2(+0.0004117200), QW2(+0.0010597400),
	QW2(+0.0009604400), QW2(+0.0013643201), QW2(-0.0057795201), QW2(-0.0000485400),
	QW2(-0.0001681200), QW2(+0.0060715801), QW2(-0.0007888900), QW2(+0.0005311600),
	QW2(+0.0004025700), QW2(+0.0003129500), QW2(+0.0003837300), QW2(-0.0074288901),
	QW2(-0.0002185600), QW2(+0.0009968500), QW2(+0.0068922201), QW2(+0.0003983100),
	QW2(-0.0001109000), QW2(-0.0005367800), QW2(-0.0005305400), QW2(+0.0000856200),
	QW2(-0.0003784900), QW2(-0.0004784400), QW2(+0.0048816199), QW2(+0.0024915801),
	QW2(-0.0004641200), QW2(+0.0819972903), QW2(+0.0174416602), QW2(+0.1191269830),
	QW2(+0.1173581928), QW2(+0.0000219100), QW2(+0.0249161609), QW2(+0.0666724294),
	QW2(+0.0007891000), QW2(+0.0177595802), QW2(+0.0094034700), QW2(+0.0048718001),
	QW2(+0.0979983807), QW2(+0.0731443763), QW2(-0.0068126400), QW2(+0.0016315500),
	QW2(-0.0026780199), QW2(+0.0011500000), QW2(+0.0365509205), QW2(+0.0728510097),
	QW2(+0.0347490199), QW2(-0.0005844900), QW2(+0.1387594789), QW2(+0.0755386129),
	QW2(-0.0006904500), QW2(+0.0218513403), QW2(+0.0723942295), QW2(+0.0118840998),
	QW2(+0.0455460884), QW2(+0.0348101296), QW2(-0.0003170800), QW2(-0.0001689000),
	QW2(+0.0018968100), QW2(-0.0004057200), QW2(-0.0029267301), QW2(-0.0021249901),
	QW2(+0.0002789300), QW2(-0.0022756699), QW2(+0.0011739300), QW2(+0.0292220097),
	QW2(-0.0061154501), QW2(-0.0011661300), QW2(+0.0702395067), QW2(-0.0109657897),
	QW2(-0.0003599100), QW2(-0.0543436892), QW2(-0.0020261300), QW2(+0.0014890000),
	QW2(+0.0013150900), QW2(+0.0051683201), QW2(-0.0291447900), QW2(+0.0598078184),
	QW2(-0.0343616717), QW2(+0.0425402299), QW2(-0.0555805713), QW2(+0.0008433600),
	QW2(-0.0005086100), QW2(-0.0012877900), QW2(+0.0095763300), QW2(+0.0003845200),
	QW2(-0.0009867200), QW2(-0.0009805100), QW2(-0.0127218803), QW2(-0.0715326220),
	QW2(-0.0007475100), QW2(-0.0658896565), QW2(-0.1368263960), QW2(-0.1075327024),
	QW2(+0.0294622909), QW2(+0.1768653840), QW2(+0.1683839709), QW2(-0.0473021716),
	QW2(+0.1290238798), QW2(+0.0939495489), QW2(+0.0203402303), QW2(+0.1699279100),
	QW2(-0.0570246503), QW2(-0.1939338893), QW2(+0.0492419302), QW2(+0.0363469310),
	QW2(-0.0364475101), QW2(-0.1178680882), QW2(-0.1733920425), QW2(-0.0634758994),
	QW2(+0.1013991088), QW2(+0.0085139303), QW2(-0.0671767965), QW2(-0.0738905519),
	QW2(-0.0493102297), QW2(+0.0760967284), QW2(-0.0295177102), QW2(+0.1029042900),
	QW2(+0.0109108603), QW2(-0.1048068106), QW2(+0.0579229482), QW2(-0.0597100593),
	QW2(-0.0168757699), QW2(+0.0015339800), QW2(+0.0036239200), QW2(+0.0058359499),
	QW2(+0.0059782001), QW2(+0.0001020200), QW2(-0.0060152700), QW2(-0.0722208619),
	QW2(-0.0238207597), QW2(-0.2790743113), QW2(-0.0122717703), QW2(-0.0037957300),
	QW2(+0.0095124999), QW2(+0.0214838199), QW2(-0.0035007901), QW2(-0.0023922501),
	QW2(-0.0063766302), QW2(+0.3645465672), QW2(+0.1219988763), QW2(-0.0520329103),
	QW2(-0.0251620803), QW2(-0.0003073800), QW2(+0.2170956880), QW2(+0.0007914600),
	QW2(-0.0060486598), QW2(+0.0062659299), QW2(+0.0118571501), QW2(-0.0061054500),
	QW2(+0.0065593799), QW2(+0.0080092801), QW2(-0.1466020644), QW2(+0.3390042484),
	QW2(+0.0017522800), QW2(+0.0164690409), QW2(+0.0051588998), QW2(+0.0235981792),
	QW2(+0.0228669494), QW2(+0.0005049100), QW2(+0.0075402702), QW2(+0.0121806301),
	QW2(+0.0007251300), QW2(+0.0032677900), QW2(+0.0013661000), QW2(+0.0019139100),
	QW2(+0.0200588591), QW2(+0.0122926198), QW2(+0.0010052400), QW2(+0.0042355298),
	QW2(+0.0025537200), QW2(+0.0014586300), QW2(+0.0049225199), QW2(+0.0184924491),
	QW2(+0.0078989305), QW2(+0.0012210800), QW2(+0.0281237699), QW2(+0.0172870997),
	QW2(+0.0008859100), QW2(+0.0029489901), QW2(+0.0166099891), QW2(+0.0033400699),
	QW2(+0.0094587198), QW2(+0.0059158001), QW2(+0.0004987600), QW2(+0.0011865000),
	QW2(+0.0019870901), QW2(-0.0006747500), QW2(-0.0026343199), QW2(-0.0018376400),
	QW2(+0.0002251700), QW2(-0.0023532100), QW2(+0.0014278900), QW2(+0.0058800001),
	QW2(-0.0010740500), QW2(+0.0042175502), QW2(+0.0010318100), QW2(-0.0045943102),
	QW2(-0.0004796800), QW2(-0.0149099203), QW2(-0.0019725501), QW2(+0.0012763800),
	QW2(+0.0011705600), QW2(+0.0100471601), QW2(+0.0025865701), QW2(+0.0140624102),
	QW2(-0.0065186699), QW2(+0.0038252100), QW2(-0.0143547002), QW2(+0.0010376200),
	QW2(-0.0003808200), QW2(-0.0013570500), QW2(-0.0015958900), QW2(+0.0002522900),
	QW2(-0.0012112400), QW2(-0.0006008900), QW2(-0.0064997198), QW2(-0.0010954600),
	QW2(+0.0069401902), QW2(-0.0113223204), QW2(+0.0219941996), QW2(-0.0635693371),
	QW2(-0.1014426872), QW2(-0.0073387800), QW2(-0.0862992033), QW2(-0.0743723437),
	QW2(+0.0058182799), QW2(-0.0855378285), QW2(+0.0372587703), QW2(-0.0055130702),
	QW2(-0.0694173127), QW2(+0.0148642696), QW2(-0.0119099896), QW2(+0.0326935314),
	QW2(-0.0006981700), QW2(-0.0179009009), QW2(-0.0261624996), QW2(+0.0603457801),
	QW2(-0.0525927283), QW2(+0.0071853502), QW2(-0.1561256498), QW2(-0.0444049388),
	QW2(-0.0200692303), QW2(+0.0692993477), QW2(-0.0482657515), QW2(-0.0366491899),
	QW2(-0.0508555099), QW2(-0.0518659502), QW2(-0.0173914097), QW2(+0.0198275391),
	QW2(-0.0004343500), QW2(-0.0152151398), QW2(-0.0170653407), QW2(-0.0131935803),
	QW2(+0.0024229100), QW2(-0.0189607907), QW2(+0.0100053800), QW2(-0.0890796036),
	QW2(-0.0522494689), QW2(+0.0226821695), QW2(+0.0223478209), QW2(-0.1115056574),
	QW2(-0.0075051598), QW2(+0.0218476001), QW2(-0.0159863308), QW2(+0.0130830100),
	QW2(+0.0129247997), QW2(-0.0878607631), QW2(+0.0083603598), QW2(-0.0133441901),
	QW2(-0.0071251602), QW2(-0.0467127897), QW2(-0.0027936599), QW2(+0.0174922291),
	QW2(+0.0052021700), QW2(-0.0151448399), QW2(+0.0755869374), QW2(+0.0149347903),
	QW2(-0.0101643195), QW2(-0.0113379303), QW2(-0.0241325200), QW2(+0.0271515604),
	QW2(+0.0404636115), QW2(+0.0115537997), QW2(+0.0559806600), QW2(-0.0658434927),
	QW2(-0.2772324383), QW2(-0.1357074529), QW2(-0.2496623248), QW2(-0.1318324059),
	QW2(-0.0791089013), QW2(-0.2384341508), QW2(+0.0520165116), QW2(-0.2438134998),
	QW2(-0.2340829819), QW2(+0.0884744674), QW2(-0.2113171071), QW2(+0.1354919821),
	QW2(-0.0150618497), QW2(-0.0119902501), QW2(-0.0862237811), QW2(+0.1314923763),
	QW2(-0.2302166522), QW2(-0.0000520800), QW2(-0.2885859013), QW2(+0.0843339935),
	QW2(-0.1090187430), QW2(+0.0082491403), QW2(-0.0333224088), QW2(-0.2035592496),
	QW2(-0.2203436345), QW2(-0.1054469422), QW2(-0.1052386165), QW2(+0.0938116536),
	QW2(-0.0276268609), QW2(-0.0010799700), QW2(-0.0041896300), QW2(+0.0001564100),
	QW2(+0.0198260099), QW2(-0.0074906400), QW2(-0.0102735600), QW2(-0.2445257157),
	QW2(-0.1787346750), QW2(-0.0038637500), QW2(+0.3195951879), QW2(+0.0715108514),
	QW2(-0.0005110700), QW2(+0.0669586733), QW2(-0.0015421400), QW2(+0.0001448300),
	QW2(-0.0036756899), QW2(-0.4110549986), QW2(+0.1681342721), QW2(-0.0160999000),
	QW2(-0.1052925810), QW2(+0.1662955731), QW2(+0.0388427898), QW2(-0.0042482498),
	QW2(-0.0002728400), QW2(+0.0000187500), QW2(-0.0361544192), QW2(+0.0058718198),
	QW2(+0.0001920100), QW2(-0.0056350101), QW2(-0.0285188705), QW2(-0.4221388698),
	QW2(-0.0126555497), QW2(+0.0649913922), QW2(+0.0126492297), QW2(+0.0384483300),
	QW2(+0.0831477493), QW2(+0.0226454102), QW2(+0.0339307897), QW2(-0.0114091104),
	QW2(+0.0104041602), QW2(+0.0075776801), QW2(+0.0032817100), QW2(+0.0220015906),
	QW2(+0.0245887302), QW2(+0.0072012902), QW2(+0.0058717900), QW2(+0.0165338498),
	QW2(-0.0112857101), QW2(+0.0038409200), QW2(-0.0047178599), QW2(+0.0579415001),
	QW2(+0.0281937700), QW2(-0.0088484902), QW2(+0.0457011200), QW2(+0.0147635601),
	QW2(+0.0068818098), QW2(+0.0184840709), QW2(+0.0156820901), QW2(+0.0130489599),
	QW2(+0.0035820501), QW2(-0.0098779602), QW2(+0.0052750502), QW2(+0.0089245802),
	QW2(+0.0059931502), QW2(-0.0032260900), QW2(-0.0047344901), QW2(-0.0044758599),
	QW2(+0.0039165099), QW2(-0.0037911600), QW2(+0.0020346500), QW2(+0.0065139900),
	QW2(+0.0225626901), QW2(-0.0129345004), QW2(+0.0244040694), QW2(-0.0281286407),
	QW2(-0.0023883800), QW2(-0.0168570895), QW2(-0.0039569600), QW2(+0.0019600899),
	QW2(+0.0009731100), QW2(-0.0124220401), QW2(-0.0130867902), QW2(+0.0218780898),
	QW2(+0.0148934601), QW2(-0.0224370491), QW2(-0.0108483899), QW2(+0.0031363601),
	QW2(-0.0000975400), QW2(-0.0022732499), QW2(+0.0131747304), QW2(+0.0025761900),
	QW2(-0.0009670400), QW2(-0.0040950598), QW2(-0.0085904105), QW2(-0.0102857100),
	QW2(+0.0005681900), QW2(-0.0373343304), QW2(-0.0106246397), QW2(-0.0560867898),
	QW2(-0.0578248389), QW2(+0.0015463700), QW2(-0.0121882502), QW2(-0.0343164913),
	QW2(+0.0007303500), QW2(-0.0185262505), QW2(-0.0005056900), QW2(-0.0021650100),
	QW2(-0.0514679812), QW2(-0.0324455388), QW2(-0.0005718000), QW2(+0.0020738600),
	QW2(+0.0008822500), QW2(-0.0018391700), QW2(-0.0206736308), QW2(-0.0259703398),
	QW2(-0.0179609302), QW2(+0.0004049100), QW2(-0.0685812905), QW2(-0.0385799184),
	QW2(-0.0013041900), QW2(+0.0006401800), QW2(-0.0366821103), QW2(-0.0065622199),
	QW2(-0.0310333893), QW2(-0.0232961606), QW2(+0.0002580300), QW2(+0.0013082901),
	QW2(+0.0006336400), QW2(-0.0003161100), QW2(-0.0012501701), QW2(-0.0013711000),
	QW2(+0.0011726700), QW2(-0.0012192300), QW2(+0.0006329200), QW2(+0.0128891300),
	QW2(-0.0025303401), QW2(-0.0076778801), QW2(-0.0093709398), QW2(-0.0175432507),
	QW2(-0.0001455500), QW2(+0.0276807006), QW2(-0.0004900400), QW2(+0.0006463100),
	QW2(+0.0007244900), QW2(+0.0083582802), QW2(-0.0027598001), QW2(-0.0285125002),
	QW2(-0.0117220404), QW2(-0.0018994800), QW2(+0.0283572897), QW2(+0.0002216700),
	QW2(+0.0003174400), QW2(-0.0007181600), QW2(-0.0032516699), QW2(-0.0001839200),
	QW2(-0.0004384300), QW2(-0.0005611000), QW2(+0.0182483606), QW2(+0.0174540505),
	QW2(+0.0000479400), QW2(-0.0193900894), QW2(-0.0021364701), QW2(-0.0344426595),
	QW2(-0.0354722589), QW2(+0.0001484700), QW2(-0.0039062500), QW2(-0.0184657406),
	QW2(+0.0001294000), QW2(-0.0034702399), QW2(+0.0001749100), QW2(+0.0001457700),
	QW2(-0.0305874702), QW2(-0.0157675296), QW2(-0.0000199500), QW2(+0.0001189700),
	QW2(+0.0001467800), QW2(+0.0001008400), QW2(-0.0078412397), QW2(-0.0119100297),
	QW2(-0.0076813600), QW2(-0.0000197900), QW2(-0.0450812988), QW2(-0.0187581796),
	QW2(+0.0001553500), QW2(+0.0002857200), QW2(-0.0190837905), QW2(-0.0008907200),
	QW2(-0.0133457202), QW2(-0.0081784502), QW2(+0.0000328600), QW2(-0.0000858700),
	QW2(+0.0002015700), QW2(+0.0000458300), QW2(+0.0002425800), QW2(+0.0004555500),
	QW2(-0.0000955400), QW2(+0.0002311800), QW2(-0.0000755300), QW2(-0.0003584400),
	QW2(-0.0008419100), QW2(-0.0001232000), QW2(-0.0035337100), QW2(-0.0036142799),
	QW2(+0.0000826200), QW2(+0.0106620397), QW2(+0.0000062000), QW2(-0.0001642400),
	QW2(-0.0000978100), QW2(-0.0011790000), QW2(+0.0011539900), QW2(-0.0115248701),
	QW2(+0.0021512499), QW2(-0.0019885600), QW2(+0.0116348499), QW2(-0.0000643800),
	QW2(-0.0000588600), QW2(+0.0001539200), QW2(+0.0032590600), QW2(+0.0000554800),
	QW2(+0.0000583200), QW2(+0.0001312100), QW2(+0.0051642498), QW2(+0.0032653799),
	QW2(+0.0005268600), QW2(-0.0319483392), QW2(-0.0039542601), QW2(-0.0547317900),
	QW2(-0.0575692393), QW2(+0.0022853101), QW2(-0.0060592801), QW2(-0.0286425203),
	QW2(+0.0008368900), QW2(-0.0092078196), QW2(-0.0008102300), QW2(+0.0015801900),
	QW2(-0.0497844517), QW2(-0.0258002803), QW2(+0.0017177199), QW2(+0.0027779101),
	QW2(+0.0012505300), QW2(+0.0005374100), QW2(-0.0133993803), QW2(-0.0188414305),
	QW2(-0.0116533004), QW2(+0.0003371800), QW2(-0.0720095485), QW2(-0.0316659100),
	QW2(+0.0008196900), QW2(+0.0012545401), QW2(-0.0308798905), QW2(-0.0015869800),
	QW2(-0.0235029291), QW2(-0.0148704499), QW2(+0.0007952100), QW2(+0.0012466901),
	QW2(+0.0009816600), QW2(-0.0003982200), QW2(-0.0015592800), QW2(-0.0010971600),
	QW2(+0.0004821900), QW2(-0.0013380700), QW2(+0.0006560500), QW2(+0.0074629602),
	QW2(+0.0012045100), QW2(-0.0062286099), QW2(-0.0089727798), QW2(-0.0093332799),
	QW2(-0.0002266600), QW2(+0.0177353695), QW2(-0.0011243300), QW2(+0.0008203200),
	QW2(+0.0005740900), QW2(+0.0042000799), QW2(-0.0019929300), QW2(-0.0198558401),
	QW2(-0.0031766000), QW2(-0.0006871200), QW2(+0.0195451993), QW2(+0.0007299500),
	QW2(-0.0001692000), QW2(-0.0007713300), QW2(-0.0015215600), QW2(+0.0001774900),
	QW2(-0.0006002300), QW2(-0.0006175900), QW2(+0.0086924601), QW2(+0.0115891397),
	QW2(-0.0153968204), QW2(-0.0213069804), QW2(-0.0557579398), QW2(+0.0105722202),
	QW2(+0.0757175535), QW2(-0.0407342017), QW2(+0.0442039296), QW2(+0.0296618100),
	QW2(+0.0229465906), QW2(+0.0733377784), QW2(-0.0117169600), QW2(+0.1201774105),
	QW2(+0.0381469689), QW2(-0.0381389111), QW2(+0.0983733982), QW2(-0.0966776535),
	QW2(-0.0212099291), QW2(+0.0036122201), QW2(+0.0166461505), QW2(-0.1162500679),
	QW2(+0.0961372033), QW2(+0.0018834700), QW2(+0.0765417367), QW2(-0.0526451506),
	QW2(+0.0386113003), QW2(-0.0286825504), QW2(-0.0378276110), QW2(+0.0635001883),
	QW2(+0.0306471400), QW2(+0.0459057391), QW2(+0.0045694099), QW2(-0.0509497486),
	QW2(-0.0157811996), QW2(-0.0207856800), QW2(+0.0198925491), QW2(+0.0174914803),
	QW2(-0.0127116702), QW2(+0.0045946999), QW2(-0.0150031196), QW2(+0.0517655313),
	QW2(-0.0947366506), QW2(+0.0166207999), QW2(-0.0321960598), QW2(-0.1521928459),
	QW2(+0.0015696600), QW2(+0.0205145609), QW2(-0.0103008198), QW2(-0.0028432701),
	QW2(+0.0045063002), QW2(+0.0816713125), QW2(+0.1239085421), QW2(-0.0269961506),
	QW2(-0.2249919027), QW2(+0.1396591216), QW2(+0.0243242793), QW2(+0.0129790902),
	QW2(+0.0195486397), QW2(-0.0059741498), QW2(-0.0805505365), QW2(+0.0256871805),
	QW2(-0.0043554502), QW2(+0.0246262606), QW2(+0.0355580710), QW2(-0.1254873723),
	QW2(+0.0000427500), QW2(-0.0522413515), QW2(-0.0131420400), QW2(-0.0768505409),
	QW2(-0.0799351931), QW2(+0.0001790900), QW2(-0.0161210392), QW2(-0.0478114709),
	QW2(+0.0001051800), QW2(-0.0243155807), QW2(-0.0002994400), QW2(-0.0020575901),
	QW2(-0.0716589019), QW2(-0.0451276004), QW2(-0.0004431800), QW2(+0.0002769400),
	QW2(-0.0003300200), QW2(-0.0013075800), QW2(-0.0275794808), QW2(-0.0369639210),
	QW2(-0.0248576496), QW2(-0.0000384500), QW2(-0.0940348282), QW2(-0.0525143594),
	QW2(-0.0006345800), QW2(+0.0000500800), QW2(-0.0508647487), QW2(-0.0078234300),
	QW2(-0.0425837003), QW2(-0.0312922001), QW2(+0.0001934600), QW2(+0.0001905100),
	QW2(+0.0001716100), QW2(+0.0002395100), QW2(-0.0001237800), QW2(-0.0000913000),
	QW2(+0.0007726600), QW2(-0.0001522600), QW2(+0.0000805200), QW2(+0.0163907297),
	QW2(-0.0021570399), QW2(-0.0209054891), QW2(-0.0162368901), QW2(-0.0220591407),
	QW2(+0.0000921200), QW2(+0.0373770110), QW2(-0.0000722300), QW2(-0.0000594500),
	QW2(+0.0000576200), QW2(+0.0105470195), QW2(-0.0021584800), QW2(-0.0387423411),
	QW2(-0.0108319996), QW2(-0.0009302900), QW2(+0.0385289006), QW2(-0.0002208200),
	QW2(-0.0001223900), QW2(-0.0001614400), QW2(-0.0035151099), QW2(+0.0004042400),
	QW2(-0.0000912000), QW2(-0.0000527300), QW2(+0.0232598409), QW2(+0.0215295497),
	QW2(+0.0003866900), QW2(-0.0196951404), QW2(-0.0006201000), QW2(-0.0390091315),
	QW2(-0.0410338007), QW2(+0.0011003100), QW2(-0.0030233101), QW2(-0.0193812698),
	QW2(+0.0003677800), QW2(-0.0035286101), QW2(+0.0005080200), QW2(+0.0008424100),
	QW2(-0.0344946906), QW2(-0.0158664696), QW2(+0.0006950500), QW2(+0.0017610400),
	QW2(+0.0005092300), QW2(+0.0005189900), QW2(-0.0071170302), QW2(-0.0101672299),
	QW2(-0.0069679399), QW2(+0.0002508500), QW2(-0.0535770096), QW2(-0.0186805595),
	QW2(+0.0004763700), QW2(+0.0011852100), QW2(-0.0192548707), QW2(-0.0004166100),
	QW2(-0.0131013701), QW2(-0.0080385003), QW2(+0.0001973700), QW2(+0.0008928200),
	QW2(+0.0006417500), QW2(-0.0001900900), QW2(-0.0008184800), QW2(-0.0005163700),
	QW2(+0.0002965100), QW2(-0.0007317600), QW2(+0.0004871300), QW2(-0.0000003900),
	QW2(-0.0006586500), QW2(-0.0019512000), QW2(-0.0050976500), QW2(-0.0042212801),
	QW2(-0.0001144800), QW2(+0.0104015199), QW2(-0.0006407900), QW2(+0.0003941000),
	QW2(+0.0003754800), QW2(+0.0001656800), QW2(+0.0016887099), QW2(-0.0112200901),
	QW2(+0.0027688099), QW2(-0.0036441700), QW2(+0.0103174904), QW2(+0.0003284400),
	QW2(-0.0001753500), QW2(-0.0004483700), QW2(-0.0005959500), QW2(+0.0000285400),
	QW2(-0.0003958600), QW2(-0.0002052400), QW2(+0.0064113899), QW2(+0.0072688698),
	QW2(+0.0000714100), QW2(-0.0198219996), QW2(-0.0047322698), QW2(-0.0306994393),
	QW2(-0.0318538286), QW2(+0.0011685500), QW2(-0.0067030201), QW2(-0.0185847506),
	QW2(+0.0003172800), QW2(-0.0073961201), QW2(+0.0001652200), QW2(+0.0005315400),
	QW2(-0.0281319395), QW2(-0.0168428104), QW2(+0.0010910600), QW2(+0.0012050400),
	QW2(+0.0002494500), QW2(-0.0009782501), QW2(-0.0103048403), QW2(-0.0134890601),
	QW2(-0.0106581300), QW2(+0.0000053000), QW2(-0.0389879309), QW2(-0.0194763709),
	QW2(-0.0001276900), QW2(+0.0005005900), QW2(-0.0194143001), QW2(-0.0034691901),
	QW2(-0.0157925393), QW2(-0.0114324400), QW2(-0.0000347900), QW2(+0.0007212600),
	QW2(+0.0002716700), QW2(-0.0001317900), QW2(-0.0005802700), QW2(-0.0004265100),
	QW2(-0.0003704000), QW2(-0.0004964200), QW2(+0.0002673900), QW2(+0.0016480800),
	QW2(-0.0001952300), QW2(-0.0000386900), QW2(-0.0092315599), QW2(-0.0033901299),
	QW2(-0.0002043500), QW2(+0.0136693502), QW2(-0.0004928600), QW2(+0.0004262100),
	QW2(+0.0002591800), QW2(+0.0044172001), QW2(+0.0027183900), QW2(-0.0145785399),
	QW2(-0.0024319601), QW2(-0.0024506799), QW2(+0.0132832602), QW2(+0.0003207100),
	QW2(-0.0000576100), QW2(-0.0003084900), QW2(+0.0017501900), QW2(+0.0000579500),
	QW2(-0.0002873000), QW2(-0.0003795800), QW2(+0.0090733096), QW2(+0.0101888096),
	QW2(+0.0737107322), QW2(-0.0804957002), QW2(-0.0336936191), QW2(-0.1173159108),
	QW2(-0.2109596878), QW2(-0.0950575024), QW2(-0.1123770326), QW2(+0.0424998999),
	QW2(-0.0795697495), QW2(-0.1670834869), QW2(+0.1047273129), QW2(-0.1638053954),
	QW2(-0.1700287759), QW2(+0.0702885613), QW2(-0.0822616518), QW2(-0.0372991487),
	QW2(-0.0274425801), QW2(+0.0950961635), QW2(-0.0095147202), QW2(-0.0047556302),
	QW2(-0.0762991235), QW2(+0.0412831791), QW2(-0.0946576372), QW2(+0.0301571898),
	QW2(+0.0243525300), QW2(-0.0889978334), QW2(-0.0562035292), QW2(-0.0221956503),
	QW2(-0.1450648010), QW2(-0.0589604191), QW2(-0.0542015992), QW2(+0.0700317174),
	QW2(-0.0072770701), QW2(+0.0035076600), QW2(+0.0146087296), QW2(+0.0105540501),
	QW2(-0.0006328600), QW2(+0.0101257497), QW2(-0.0112894299), QW2(+0.0873838589),
	QW2(-0.2213894427), QW2(+0.3044213653), QW2(-0.1593643874), QW2(+0.0386329591),
	QW2(+0.0044169300), QW2(+0.0605419688), QW2(+0.0020759399), QW2(-0.0080092000),
	QW2(-0.0074270200), QW2(-0.2503186166), QW2(+0.0643680915), QW2(-0.0340176187),
	QW2(-0.1457961202), QW2(+0.0405336991), QW2(+0.1336358339), QW2(-0.0077782799),
	QW2(+0.0035021801), QW2(+0.0115707796), QW2(-0.1158334464), QW2(-0.0104897805),
	QW2(-0.0023556901), QW2(+0.0122077502), QW2(+0.0783233270), QW2(-0.2405790836),
	QW2(-0.0004016700), QW2(+0.0890183970), QW2(+0.0339158997), QW2(+0.1136276275),
	QW2(+0.1064841822), QW2(+0.0113028800), QW2(+0.0248095207), QW2(+0.0713850111),
	QW2(+0.0092700804), QW2(+0.0127592003), QW2(+0.0123386104), QW2(+0.0112698302),
	QW2(+0.0989953578), QW2(+0.0804361627), QW2(+0.0083934497), QW2(+0.0215200502),
	QW2(-0.0017660900), QW2(+0.0032016500), QW2(+0.0359347500), QW2(+0.0895848870),
	QW2(+0.0516067892), QW2(-0.0012138300), QW2(+0.1274733990), QW2(+0.0677309632),
	QW2(+0.0022079099), QW2(+0.0481417291), QW2(+0.0754390880), QW2(+0.0156515092),
	QW2(+0.0541722402), QW2(+0.0369625911), QW2(+0.0048080999), QW2(+0.0016508000),
	QW2(+0.0057365298), QW2(-0.0009205200), QW2(-0.0049829301), QW2(-0.0034004201),
	QW2(+0.0051034898), QW2(-0.0042098900), QW2(+0.0022779200), QW2(+0.0245161392),
	QW2(-0.0007669200), QW2(-0.0174292605), QW2(+0.0595216788), QW2(-0.0174180195),
	QW2(-0.0007912600), QW2(-0.0555671193), QW2(-0.0034302301), QW2(+0.0032815200),
	QW2(+0.0013645400), QW2(-0.0097403703), QW2(-0.0019299500), QW2(+0.0598112009),
	QW2(+0.0414748006), QW2(-0.0276778098), QW2(-0.0553146116), QW2(+0.0019602301),
	QW2(-0.0007608600), QW2(-0.0024415001), QW2(-0.0329227597), QW2(+0.0001402100),
	QW2(-0.0016588700), QW2(-0.0028449399), QW2(-0.0273649301), QW2(-0.0237859692),
	QW2(+0.0012333100), QW2(+0.0934379324), QW2(+0.0089431098), QW2(+0.1336035132),
	QW2(+0.0694019869), QW2(-0.0014884101), QW2(+0.0939089730), QW2(-0.0150255198),
	QW2(-0.0158617496), QW2(+0.0606919490), QW2(-0.0019988499), QW2(-0.0043558199),
	QW2(+0.1018554568), QW2(-0.0355114713), QW2(+0.0001525300), QW2(+0.0059885499),
	QW2(+0.0035228000), QW2(-0.0104320496), QW2(-0.0090683103), QW2(+0.0397234894),
	QW2(+0.0549920686), QW2(-0.0034119401), QW2(-0.0250952896), QW2(+0.0743565783),
	QW2(-0.0125732999), QW2(+0.0039338502), QW2(-0.0360405594), QW2(+0.0232204292),
	QW2(-0.0784573331), QW2(-0.0082545802), QW2(+0.0073629301), QW2(+0.0017618800),
	QW2(-0.0033078699), QW2(-0.0001177600), QW2(-0.0004811500), QW2(+0.0005567200),
	QW2(-0.0326902010), QW2(-0.0009057500), QW2(-0.0024638199), QW2(+0.0019649300),
	QW2(-0.0105560496), QW2(+0.0139949797), QW2(-0.0667399764), QW2(-0.0572489202),
	QW2(+0.0004899900), QW2(-0.0213367399), QW2(-0.0011659299), QW2(+0.0015194400),
	QW2(-0.0006362700), QW2(+0.0196608696), QW2(+0.0617080294), QW2(+0.0357597508),
	QW2(+0.0428456701), QW2(+0.0055096601), QW2(+0.0799300075), QW2(+0.0001050500),
	QW2(+0.0000546300), QW2(+0.0000543100), QW2(+0.0623664893), QW2(-0.0000946900),
	QW2(-0.0024171900), QW2(+0.0017559500), QW2(+0.0071954899), QW2(+0.0521793887),
	QW2(+0.0006323600), QW2(-0.0419866405), QW2(-0.0074021900), QW2(-0.0376677699),
	QW2(+0.0082175201), QW2(+0.0138668399), QW2(+0.0053408998), QW2(-0.0029563301),
	QW2(+0.0001046900), QW2(-0.0161929205), QW2(-0.0037310300), QW2(-0.0147789503),
	QW2(-0.0306875203), QW2(-0.0236978792), QW2(-0.0167529900), QW2(-0.0008727500),
	QW2(-0.0247236695), QW2(+0.0005321300), QW2(-0.0102163600), QW2(-0.0193331297),
	QW2(+0.0019522000), QW2(+0.0022930701), QW2(+0.0117156003), QW2(-0.0340457112),
	QW2(-0.0095814103), QW2(-0.0088190604), QW2(-0.0170840807), QW2(-0.0014884800),
	QW2(-0.0099478401), QW2(-0.0107979998), QW2(-0.0116142696), QW2(+0.0043365299),
	QW2(-0.0062171798), QW2(-0.0197090004), QW2(-0.0007642200), QW2(+0.0009302300),
	QW2(+0.0021338500), QW2(-0.0019579800), QW2(+0.0014714299), QW2(+0.0300088003),
	QW2(-0.0107673397), QW2(-0.0090814801), QW2(+0.0384742506), QW2(-0.0247992091),
	QW2(-0.0066263401), QW2(+0.0140527701), QW2(-0.0090993000), QW2(+0.0046060500),
	QW2(+0.0016582800), QW2(+0.0300794505), QW2(-0.0462483205), QW2(-0.0145032797),
	QW2(-0.0343351811), QW2(-0.0044627800), QW2(+0.0127520701), QW2(+0.0168421604),
	QW2(+0.0028265300), QW2(-0.0065710000), QW2(-0.0269704498), QW2(+0.0211869106),
	QW2(-0.0030935300), QW2(+0.0023014899), QW2(+0.0030712199), QW2(-0.0251823701),
	QW2(-0.0028858499), QW2(-0.0463432185), QW2(-0.0285298005), QW2(-0.0490418412),
	QW2(-0.0475654304), QW2(-0.0004899500), QW2(-0.0178462304), QW2(-0.0330093801),
	QW2(-0.0066042901), QW2(-0.0397371687), QW2(-0.0044742399), QW2(-0.0264974199),
	QW2(-0.0460292995), QW2(-0.0436147004), QW2(-0.0215904303), QW2(-0.0076506599),
	QW2(-0.0270441100), QW2(-0.0126459897), QW2(-0.0360693000), QW2(-0.0408289507),
	QW2(-0.0220814999), QW2(-0.0020930700), QW2(-0.0484286696), QW2(-0.0521491282),
	QW2(-0.0179202408), QW2(-0.0119357500), QW2(-0.0425720103), QW2(-0.0202105697),
	QW2(-0.0397175215), QW2(-0.0379556082), QW2(-0.0133109698), QW2(-0.0036973101),
	QW2(-0.0122235501), QW2(-0.0132410703), QW2(+0.0005160700), QW2(+0.0025805600),
	QW2(+0.0050135101), QW2(-0.0000644900), QW2(-0.0027472400), QW2(+0.0234143995),
	QW2(-0.0187622495), QW2(-0.0442720093), QW2(-0.0127048995), QW2(-0.0357250199),
	QW2(+0.0002321400), QW2(+0.0406916700), QW2(-0.0067716702), QW2(-0.0015974800),
	QW2(-0.0006927400), QW2(+0.0351082608), QW2(-0.0280375406), QW2(-0.0412116610),
	QW2(-0.0104638096), QW2(-0.0030862000), QW2(+0.0434279107), QW2(+0.0114760203),
	QW2(+0.0008591600), QW2(-0.0020349801), QW2(-0.0382829010), QW2(+0.0230578091),
	QW2(+0.0002498300), QW2(+0.0012232800), QW2(+0.0340356007), QW2(+0.0075063501),
	QW2(+0.0004528300), QW2(-0.0267725792), QW2(-0.0135419201), QW2(-0.0290852599),
	QW2(-0.0295589007), QW2(+0.0026780600), QW2(-0.0033516800), QW2(-0.0175637193),
	QW2(-0.0014567100), QW2(-0.0251561701), QW2(+0.0017299800), QW2(-0.0140409702),
	QW2(-0.0280543491), QW2(-0.0244484693), QW2(-0.0134429298), QW2(-0.0032987201),
	QW2(-0.0215473995), QW2(-0.0019076900), QW2(-0.0169161800), QW2(-0.0217796396),
	QW2(-0.0050652199), QW2(-0.0005072800), QW2(-0.0291107800), QW2(-0.0289176404),
	QW2(-0.0089494698), QW2(-0.0052467701), QW2(-0.0241317097), QW2(-0.0046311598),
	QW2(-0.0233188905), QW2(-0.0188014805), QW2(-0.0088834297), QW2(-0.0037166099),
	QW2(-0.0064512598), QW2(-0.0062371502), QW2(+0.0035946199), QW2(+0.0001760100),
	QW2(+0.0037476600), QW2(+0.0018658100), QW2(-0.0022450599), QW2(+0.0257642195),
	QW2(-0.0208711792), QW2(-0.0205539409), QW2(-0.0073729502), QW2(-0.0281916298),
	QW2(+0.0005479200), QW2(+0.0221030600), QW2(-0.0017496400), QW2(-0.0029291699),
	QW2(-0.0000414300), QW2(+0.0208561607), QW2(-0.0365174711), QW2(-0.0221648104),
	QW2(+0.0031090900), QW2(-0.0085017504), QW2(+0.0224998407), QW2(+0.0066487999),
	QW2(+0.0009239500), QW2(-0.0006609800), QW2(-0.0343917198), QW2(+0.0132414699),
	QW2(+0.0016887300), QW2(+0.0014035400), QW2(+0.0092595797), QW2(+0.0065577500),
	QW2(-0.0024767800), QW2(+0.0074307099), QW2(+0.0042235600), QW2(+0.0127296699),
	QW2(+0.0039236099), QW2(-0.0050552199), QW2(+0.0023331100), QW2(+0.0092284502),
	QW2(-0.0043512201), QW2(+0.0024469199), QW2(+0.0051965299), QW2(-0.0084048100),
	QW2(+0.0050117699), QW2(+0.0136662005), QW2(-0.0069547999), QW2(-0.0068388800),
	QW2(+0.0011574500), QW2(+0.0049858699), QW2(+0.0115421899), QW2(+0.0126506798),
	QW2(-0.0026055700), QW2(-0.0011341000), QW2(+0.0079552000), QW2(+0.0134301903),
	QW2(+0.0038442500), QW2(-0.0131231202), QW2(+0.0088370899), QW2(-0.0009813800),
	QW2(-0.0011146599), QW2(+0.0071956799), QW2(+0.0017271400), QW2(-0.0038345300),
	QW2(+0.0030296200), QW2(+0.0025204101), QW2(+0.0020341701), QW2(+0.0004553100),
	QW2(-0.0049107401), QW2(+0.0011112900), QW2(+0.0009621000), QW2(-0.0261318292),
	QW2(+0.0022154700), QW2(+0.0259408392), QW2(+0.0004440900), QW2(+0.0078355502),
	QW2(-0.0010327200), QW2(-0.0072417301), QW2(+0.0022921399), QW2(-0.0009174300),
	QW2(+0.0019737801), QW2(-0.0244976208), QW2(+0.0215505809), QW2(+0.0061041801),
	QW2(+0.0358128995), QW2(-0.0456081592), QW2(-0.0085420003), QW2(-0.0030440900),
	QW2(+0.0009346900), QW2(+0.0008752400), QW2(-0.0352514200), QW2(-0.0038594999),
	QW2(+0.0003712100), QW2(+0.0007183500), QW2(-0.0272688102), QW2(-0.0005300700),
	QW2(-0.0013868100), QW2(-0.0480997190), QW2(-0.0275037903), QW2(-0.0557132810),
	QW2(-0.0493953303), QW2(+0.0043039601), QW2(-0.0156789795), QW2(-0.0374169685),
	QW2(-0.0064967400), QW2(-0.0425914191), QW2(-0.0059236898), QW2(-0.0293453895),
	QW2(-0.0503341183), QW2(-0.0486666709), QW2(-0.0270013306), QW2(-0.0044611702),
	QW2(-0.0377030186), QW2(-0.0110864798), QW2(-0.0373296998), QW2(-0.0452556089),
	QW2(-0.0225591492), QW2(+0.0000429600), QW2(-0.0559614114), QW2(-0.0529811494),
	QW2(-0.0205201302), QW2(-0.0135648698), QW2(-0.0437962487), QW2(-0.0187094603),
	QW2(-0.0399498008), QW2(-0.0392967984), QW2(-0.0195916295), QW2(-0.0009741200),
	QW2(-0.0144003900), QW2(-0.0232177991), QW2(-0.0015004200), QW2(+0.0012283900),
	QW2(+0.0046068099), QW2(-0.0042440402), QW2(-0.0019920999), QW2(+0.0399654210),
	QW2(-0.0343221612), QW2(-0.0236509293), QW2(+0.0053081401), QW2(-0.0394618809),
	QW2(+0.0000155200), QW2(+0.0436918810), QW2(-0.0120278103), QW2(-0.0004094300),
	QW2(-0.0003124600), QW2(+0.0398552604), QW2(-0.0485780090), QW2(-0.0432087407),
	QW2(-0.0168793406), QW2(-0.0082081603), QW2(+0.0437354110), QW2(+0.0218122900),
	QW2(+0.0072452598), QW2(-0.0056393300), QW2(-0.0461513214), QW2(+0.0340398587),
	QW2(-0.0012030200), QW2(+0.0003377000), QW2(+0.0228855107), QW2(+0.0022744799),
	QW2(+0.0003528800), QW2(+0.0480320491), QW2(+0.0072982800), QW2(+0.0589500181),
	QW2(+0.0511266887), QW2(-0.0010672000), QW2(+0.0067658699), QW2(+0.0234866906),
	QW2(-0.0003994600), QW2(+0.0044541899), QW2(+0.0004227200), QW2(-0.0006639900),
	QW2(+0.0468300097), QW2(+0.0355198383), QW2(-0.0002183600), QW2(+0.0093282703),
	QW2(+0.0032411199), QW2(-0.0005969000), QW2(+0.0092002200), QW2(+0.0589346699),
	QW2(+0.0017081500), QW2(+0.0001785000), QW2(+0.0580153987), QW2(+0.0623182915),
	QW2(-0.0004381200), QW2(+0.0019576801), QW2(+0.0485852100), QW2(-0.0004121300),
	QW2(+0.0194145702), QW2(+0.0082557900), QW2(+0.0000995600), QW2(+0.0002114700),
	QW2(+0.0003300200), QW2(-0.0000750800), QW2(-0.0002743800), QW2(-0.0001883400),
	QW2(-0.0000779600), QW2(-0.0002491200), QW2(+0.0000194200), QW2(+0.0313450694),
	QW2(-0.0034202600), QW2(+0.0334318988), QW2(-0.0284320991), QW2(+0.0046639200),
	QW2(+0.0000560100), QW2(-0.0323625505), QW2(-0.0002444200), QW2(-0.0000492400),
	QW2(+0.0000312100), QW2(+0.0396463089), QW2(+0.0155087598), QW2(+0.0322579294),
	QW2(-0.0313034914), QW2(+0.0178628005), QW2(-0.0334686488), QW2(-0.0000522900),
	QW2(-0.0001152300), QW2(-0.0001383800), QW2(-0.0154268099), QW2(+0.0000255400),
	QW2(-0.0000661100), QW2(+0.0000480300), QW2(+0.0226022005), QW2(+0.0221163109),
	QW2(+0.1522845626), QW2(+0.1292067021), QW2(-0.1387421042), QW2(+0.1322753727),
	QW2(-0.0344812497), QW2(+0.2612569034), QW2(+0.2177892774), QW2(-0.0927914083),
	QW2(+0.0803372636), QW2(-0.1502018422), QW2(+0.0228636991), QW2(-0.1130725294),
	QW2(-0.0458778813), QW2(-0.1264636368), QW2(-0.1475977302), QW2(+0.0083291996),
	QW2(-0.2009383440), QW2(-0.0091419900), QW2(-0.1763481349), QW2(+0.3243653178),
	QW2(+0.1237104386), QW2(+0.1338112950), QW2(-0.0003687200), QW2(+0.0585178286),
	QW2(-0.0976958275), QW2(+0.0322092511), QW2(+0.0979339927), QW2(+0.1626509577),
	QW2(-0.1341995001), QW2(-0.1912647784), QW2(-0.0993320122), QW2(+0.0964897871),
	QW2(-0.0192435607), QW2(-0.0103754504), QW2(-0.0069723302), QW2(-0.0072687999),
	QW2(-0.0019130700), QW2(-0.0270962007), QW2(+0.0077884202), QW2(+0.1847285777),
	QW2(-0.1639408916), QW2(+0.0095839100), QW2(-0.0619458593), QW2(-0.1130712330),
	QW2(+0.0145069296), QW2(-0.0020380700), QW2(-0.0155542605), QW2(-0.0059842500),
	QW2(+0.0107977204), QW2(+0.3011195660), QW2(-0.0312619098), QW2(+0.0527952202),
	QW2(+0.0601525605), QW2(-0.1739045382), QW2(-0.0340093486), QW2(+0.0021690901),
	QW2(+0.0266459491), QW2(-0.0161234401), QW2(-0.2968010902), QW2(+0.0153906504),
	QW2(+0.0242217705), QW2(+0.0252343901), QW2(+0.0713782534), QW2(+0.1053922772),
	QW2(-0.2644174099), QW2(-0.1769178212), QW2(+0.1823544353), QW2(-0.0494287387),
	QW2(+0.1018326506), QW2(+0.1077522263), QW2(+0.0944735631), QW2(-0.1201149821),
	QW2(-0.0872216225), QW2(+0.2712972164), QW2(-0.2999234498), QW2(-0.0585600883),
	QW2(+0.0192842595), QW2(-0.1423574984), QW2(+0.0720966533), QW2(+0.0827524364),
	QW2(-0.1338032335), QW2(+0.0783096775), QW2(+0.0382927209), QW2(-0.2412804514),
	QW2(-0.0521946698), QW2(-0.2246581465), QW2(+0.0303783193), QW2(+0.0930086672),
	QW2(+0.0969809815), QW2(-0.4125443697), QW2(-0.0041880198), QW2(-0.1768022031),
	QW2(+0.0645763204), QW2(+0.1819735616), QW2(+0.1339517832), QW2(+0.0960347131),
	QW2(+0.0872609094), QW2(-0.0100769103), QW2(-0.0113140298), QW2(+0.0087879803),
	QW2(+0.0194061808), QW2(-0.0042830999), QW2(-0.0205494501), QW2(+0.0906408280),
	QW2(-0.1004142910), QW2(-0.0248490795), QW2(-0.0133356601), QW2(-0.0587597191),
	QW2(-0.0176599696), QW2(-0.0753826275), QW2(+0.0125049297), QW2(+0.0206915308),
	QW2(-0.0168529302), QW2(-0.0140607497), QW2(+0.1724535227), QW2(-0.0314086899),
	QW2(+0.0422712192), QW2(+0.0005281600), QW2(-0.1488383263), QW2(-0.0016901500),
	QW2(+0.0085958997), QW2(-0.0030543001), QW2(+0.0324350409), QW2(+0.0095250299),
	QW2(-0.0391253196), QW2(+0.0065293200), QW2(-0.1183027476), QW2(+0.0460750796),
	QW2(+0.1186010316), QW2(+0.0804347768), QW2(-0.0284837596), QW2(+0.1842951626),
	QW2(-0.0675196871), QW2(+0.1328849941), QW2(-0.0841385424), QW2(-0.1561610550),
	QW2(-0.1562283337), QW2(-0.0980885476), QW2(-0.0512861311), QW2(-0.5447413325),
	QW2(-0.0884999707), QW2(+0.1185765192), QW2(-0.5802274346), QW2(+0.2225385904),
	QW2(+0.1967107058), QW2(-0.0924462974), QW2(-0.0699833035), QW2(+0.3931890428),
	QW2(-0.3967686892), QW2(-0.0623680316), QW2(-0.0871917531), QW2(+0.3164755404),
	QW2(-0.0935057327), QW2(+0.3810343742), QW2(+0.1421901882), QW2(-0.1804828197),
	QW2(-0.0862091109), QW2(-0.1956071407), QW2(-0.0260806493), QW2(+0.0737894177),
	QW2(-0.0132633597), QW2(-0.0118131703), QW2(-0.0056011602), QW2(-0.0027088900),
	QW2(+0.0069802501), QW2(-0.0015659200), QW2(-0.0112502202), QW2(+0.1242638081),
	QW2(-0.0164460801), QW2(+0.0996944830), QW2(+0.2465987951), QW2(+0.0322059989),
	QW2(-0.0105156004), QW2(-0.0642547533), QW2(-0.0145069696), QW2(-0.0168927703),
	QW2(+0.0066572502), QW2(-0.1396631598), QW2(-0.0831687525), QW2(-0.0140290000),
	QW2(-0.0407030918), QW2(-0.1596429944), QW2(-0.0148645500), QW2(+0.0140514905),
	QW2(-0.0033722799), QW2(-0.0070300102), QW2(-0.0712596774), QW2(+0.0145601099),
	QW2(+0.0056354501), QW2(+0.0033686699), QW2(+0.0397175215), QW2(+0.0031850799),
	QW2(-0.0422124788), QW2(-0.1241519675), QW2(+0.0722276866), QW2(-0.0872804597),
	QW2(+0.0582015999), QW2(+0.1039464325), QW2(+0.0046638600), QW2(-0.0093425298),
	QW2(-0.0094317403), QW2(+0.0825602636), QW2(-0.0408394411), QW2(+0.0303099193),
	QW2(+0.1204898730), QW2(-0.0547847189), QW2(+0.0472682789), QW2(+0.0398152694),
	QW2(-0.1462281644), QW2(+0.0522025004), QW2(+0.0903853625), QW2(-0.2032633275),
	QW2(-0.0080121998), QW2(-0.0256546699), QW2(+0.0801978335), QW2(-0.0398845896),
	QW2(+0.0568077788), QW2(-0.0868084878), QW2(+0.0206857305), QW2(-0.0092788497),
	QW2(+0.0618681386), QW2(+0.1002702415), QW2(+0.0249425694), QW2(+0.0862039030),
	QW2(-0.0370536596), QW2(-0.0224352293), QW2(-0.0384985916), QW2(-0.0338556096),
	QW2(+0.0687350929), QW2(-0.0311530102), QW2(-0.0204506796), QW2(-0.2067370415),
	QW2(+0.2389832884), QW2(-0.4528815150), QW2(+0.1539253145), QW2(+0.0734287500),
	QW2(-0.0046787602), QW2(+0.1125381067), QW2(-0.0066885101), QW2(-0.0008640300),
	QW2(+0.0039559202), QW2(-0.1240080371), QW2(-0.0771649927), QW2(+0.0189699307),
	QW2(-0.1212184280), QW2(+0.1134274527), QW2(+0.0698020533), QW2(+0.0246695001),
	QW2(-0.0213961992), QW2(-0.0149640702), QW2(+0.0510890596), QW2(+0.0248644799),
	QW2(-0.0305517707), QW2(-0.0211503804), QW2(-0.3086569905), QW2(-0.3071294427),
	QW2(-0.0418351404), QW2(-0.1484790593), QW2(-0.0958891809), QW2(+0.1127486974),
	QW2(+0.1032373309), QW2(+0.0009818200), QW2(-0.0781836137), QW2(-0.0612448491),
	QW2(-0.2413453162), QW2(+0.1893502474), QW2(-0.3315050602), QW2(-0.4040072858),
	QW2(+0.0205256306), QW2(-0.1053512692), QW2(-0.2433770448), QW2(-0.1729300916),
	QW2(+0.0245904792), QW2(+0.1673817784), QW2(+0.0830363408), QW2(-0.0940372273),
	QW2(-0.3571326733), QW2(-0.1637866795), QW2(+0.1298852414), QW2(+0.2402312607),
	QW2(-0.0723355189), QW2(-0.4770087004), QW2(+0.1113642082), QW2(-0.1657992452),
	QW2(-0.1673007458), QW2(-0.0009854500), QW2(-0.0145621700), QW2(-0.0073686098),
	QW2(-0.0104066599), QW2(+0.0139959604), QW2(+0.0160718206), QW2(-0.0009747000),
	QW2(+0.0354500301), QW2(+0.0030693200), QW2(-0.0445728302), QW2(-0.0651701167),
	QW2(+0.2460532933), QW2(+0.0704887807), QW2(+0.0570804588), QW2(-0.0272407103),
	QW2(-0.0027478500), QW2(-0.0070583001), QW2(+0.0142940097), QW2(-0.0039738300),
	QW2(-0.0219740495), QW2(-0.0661792532), QW2(-0.0828920230), QW2(-0.0755086616),
	QW2(+0.1076320782), QW2(+0.0360291116), QW2(-0.0467323102), QW2(-0.0194212794),
	QW2(-0.0109169604), QW2(+0.0065350700), QW2(-0.1306105852), QW2(-0.0192199107),
	QW2(-0.0288878791), QW2(-0.0281307902), QW2(-0.1898394972), QW2(+0.0260642692),
	QW2(-0.0019482500), QW2(-0.0024621701), QW2(-0.0045335302), QW2(-0.0064915000),
	QW2(+0.0025863999), QW2(+0.0007149300), QW2(-0.0037352501), QW2(-0.0113546802),
	QW2(+0.0032033599), QW2(-0.0061618299), QW2(+0.0010721100), QW2(+0.0042669000),
	QW2(+0.0076384302), QW2(-0.0015996801), QW2(+0.0003729100), QW2(-0.0023685500),
	QW2(-0.0079728998), QW2(-0.0033539899), QW2(-0.0047183800), QW2(-0.0010756800),
	QW2(-0.0036016901), QW2(-0.0002038800), QW2(+0.0011502100), QW2(-0.0037409700),
	QW2(-0.0025447400), QW2(+0.0043248902), QW2(-0.0100432904), QW2(-0.0003287000),
	QW2(-0.0085491501), QW2(-0.0044015599), QW2(-0.0016592999), QW2(-0.0014135800),
	QW2(-0.0015862799), QW2(-0.0030284601), QW2(+0.0024852001), QW2(+0.0022692201),
	QW2(+0.0018047100), QW2(+0.0024531200), QW2(-0.0008037600), QW2(+0.0327053405),
	QW2(-0.0065268502), QW2(-0.0342637710), QW2(-0.0056058201), QW2(-0.0219363105),
	QW2(-0.0033619399), QW2(+0.0050915000), QW2(+0.0002471500), QW2(+0.0000966300),
	QW2(-0.0012592900), QW2(+0.0219235793), QW2(-0.0105512403), QW2(-0.0045788898),
	QW2(-0.0425362401), QW2(+0.0167145897), QW2(+0.0039610700), QW2(+0.0015284400),
	QW2(+0.0004809200), QW2(+0.0007042000), QW2(+0.0119720297), QW2(+0.0013006100),
	QW2(+0.0012156500), QW2(+0.0020809500), QW2(+0.0054231798), QW2(+0.0185184292),
	QW2(-0.0230460893), QW2(-0.1655724943), QW2(+0.0229337402), QW2(-0.0648385212),
	QW2(+0.0987278372), QW2(-0.1649361849), QW2(-0.3421264887), QW2(-0.1352075487),
	QW2(-0.0700795501), QW2(+0.1174259633), QW2(+0.0149267698), QW2(+0.1975434124),
	QW2(+0.1270360202), QW2(-0.0647899732), QW2(+0.1552571058), QW2(-0.0238303598),
	QW2(+0.1383629143), QW2(-0.0487505607), QW2(+0.0241315309), QW2(-0.2982419133),
	QW2(+0.1009846032), QW2(-0.0414454490), QW2(-0.1309646517), QW2(-0.2248106301),
	QW2(-0.0072299698), QW2(+0.0336183496), QW2(-0.1569463015), QW2(-0.1783038527),
	QW2(+0.2027938068), QW2(-0.0651938170), QW2(+0.0008361500), QW2(-0.0331471115),
	QW2(+0.0247431006), QW2(-0.0174374096), QW2(+0.0021763300), QW2(-0.0030330899),
	QW2(+0.0479455106), QW2(-0.0016141400), QW2(+0.0063137398), QW2(+0.0025454599),
	QW2(-0.0003829500), QW2(+0.1234103069), QW2(-0.0728485510), QW2(+0.0943097994),
	QW2(-0.0010946700), QW2(+0.0433196686), QW2(+0.0074208602), QW2(+0.0033401900),
	QW2(-0.0013090899), QW2(-0.0302034505), QW2(-0.0548481904), QW2(-0.0151442401),
	QW2(-0.0595724508), QW2(+0.1502833664), QW2(+0.0163234007), QW2(-0.0257148203),
	QW2(-0.0053533702), QW2(+0.0030979100), QW2(+0.0893648788), QW2(+0.0014007600),
	QW2(-0.0003513900), QW2(+0.0121721802), QW2(+0.0323691592), QW2(+0.0212789606),
	QW2(-0.0044309399), QW2(-0.0273955297), QW2(-0.0127138300), QW2(-0.0261353496),
	QW2(-0.0239599906), QW2(+0.0025988701), QW2(-0.0011604900), QW2(-0.0126838796),
	QW2(-0.0050441399), QW2(-0.0160273705), QW2(-0.0035555800), QW2(-0.0158831701),
	QW2(-0.0214894805), QW2(-0.0262316596), QW2(-0.0136462497), QW2(-0.0061476701),
	QW2(-0.0203005392), QW2(-0.0031681799), QW2(-0.0159975998), QW2(-0.0292788409),
	QW2(-0.0052711298), QW2(-0.0045948001), QW2(-0.0230743308), QW2(-0.0270684604),
	QW2(-0.0087724598), QW2(-0.0126983300), QW2(-0.0203504097), QW2(-0.0065192198),
	QW2(-0.0146227404), QW2(-0.0151234604), QW2(-0.0072786198), QW2(-0.0060073901),
	QW2(-0.0077094701), QW2(-0.0035675699), QW2(+0.0074065002), QW2(+0.0056040701),
	QW2(+0.0005547200), QW2(+0.0058201798), QW2(-0.0031139201), QW2(+0.0156422704),
	QW2(-0.0118742604), QW2(-0.0070625800), QW2(+0.0318505988), QW2(-0.0226714294),
	QW2(+0.0000893500), QW2(+0.0196359009), QW2(+0.0005701900), QW2(-0.0042836000),
	QW2(-0.0019555001), QW2(+0.0285452493), QW2(-0.0348776989), QW2(-0.0196410604),
	QW2(-0.0227436703), QW2(-0.0011801900), QW2(+0.0196010992), QW2(+0.0012519900),
	QW2(+0.0018604700), QW2(+0.0028910900), QW2(-0.0178867094), QW2(+0.0084307799),
	QW2(+0.0028560101), QW2(+0.0026409701), QW2(+0.0051515698), QW2(-0.0085422304),
	QW2(+0.0032082901), QW2(+0.0125359399), QW2(+0.0087637100), QW2(+0.0156392194),
	QW2(+0.0139083900), QW2(+0.0049793101), QW2(+0.0116250999), QW2(+0.0146803204),
	QW2(+0.0040300000), QW2(+0.0068543800), QW2(+0.0061149700), QW2(+0.0084162001),
	QW2(+0.0149898296), QW2(+0.0146096703), QW2(+0.0062238402), QW2(+0.0057789902),
	QW2(+0.0024008499), QW2(+0.0077584800), QW2(+0.0137485601), QW2(+0.0104544898),
	QW2(+0.0180662908), QW2(+0.0023891600), QW2(+0.0124227097), QW2(+0.0085675102),
	QW2(+0.0064810300), QW2(+0.0033209799), QW2(+0.0099885399), QW2(+0.0114256898),
	QW2(+0.0108979400), QW2(+0.0137285301), QW2(+0.0022451000), QW2(+0.0043094498),
	QW2(+0.0053237998), QW2(+0.0006520600), QW2(-0.0059622601), QW2(-0.0044432599),
	QW2(-0.0007978600), QW2(-0.0047158999), QW2(+0.0006317800), QW2(-0.0344917402),
	QW2(+0.0034116800), QW2(+0.0165271107), QW2(+0.0062030498), QW2(+0.0066742199),
	QW2(-0.0013815199), QW2(-0.0127132200), QW2(-0.0023010201), QW2(+0.0019808901),
	QW2(+0.0020786901), QW2(-0.0067550000), QW2(+0.0008626900), QW2(+0.0112410896),
	QW2(+0.0143650305), QW2(-0.0096182302), QW2(-0.0115044396), QW2(-0.0015453200),
	QW2(-0.0012389700), QW2(-0.0026459100), QW2(-0.0102611296), QW2(-0.0016686500),
	QW2(-0.0009572000), QW2(-0.0049661300), QW2(+0.0016946300), QW2(-0.0105210301),
	QW2(+0.0011546900), QW2(+0.0166561492), QW2(+0.0014790200), QW2(+0.0178249106),
	QW2(+0.0153545896), QW2(-0.0007006600), QW2(-0.0074660499), QW2(-0.0005730200),
	QW2(+0.0011748200), QW2(+0.0080677001), QW2(-0.0030423300), QW2(+0.0040463302),
	QW2(+0.0129770096), QW2(+0.0093998201), QW2(+0.0058103702), QW2(+0.0048057698),
	QW2(+0.0125906598), QW2(-0.0037270600), QW2(-0.0005408400), QW2(+0.0175291207),
	QW2(-0.0117297703), QW2(+0.0008283000), QW2(+0.0157444999), QW2(+0.0196226109),
	QW2(+0.0012080300), QW2(+0.0072794198), QW2(+0.0122048603), QW2(-0.0056668301),
	QW2(+0.0053515998), QW2(-0.0008088400), QW2(+0.0054052500), QW2(+0.0033811301),
	QW2(+0.0031712500), QW2(-0.0012345400), QW2(-0.0070414399), QW2(-0.0042257300),
	QW2(+0.0001681200), QW2(-0.0058584600), QW2(+0.0022558600), QW2(-0.0178238899),
	QW2(+0.0149187697), QW2(+0.0040811100), QW2(-0.0384648293), QW2(+0.0152636403),
	QW2(-0.0003723500), QW2(-0.0068366500), QW2(-0.0038464000), QW2(+0.0036597101),
	QW2(+0.0018230900), QW2(-0.0137465699), QW2(+0.0300643295), QW2(+0.0069915601),
	QW2(+0.0035044600), QW2(+0.0144897904), QW2(-0.0049730898), QW2(+0.0016843100),
	QW2(-0.0008216900), QW2(-0.0034883900), QW2(+0.0322162509), QW2(+0.0004965000),
	QW2(-0.0022235999), QW2(-0.0021884199), QW2(+0.0223048199), QW2(+0.0093266796),
	QW2(+0.1720476002), QW2(-0.0892525464), QW2(-0.1318868697), QW2(+0.0226035509),
	QW2(-0.0152089000), QW2(+0.1638481766), QW2(+0.1597123742), QW2(+0.0887633935),
	QW2(+0.0379195102), QW2(+0.0751097873), QW2(+0.0780925229), QW2(+0.0382518992),
	QW2(+0.0672172979), QW2(-0.1757110357), QW2(+0.1297785342), QW2(+0.0031496501),
	QW2(+0.1239026487), QW2(+0.0162910502), QW2(-0.2598991692), QW2(+0.0191857796),
	QW2(+0.1622464955), QW2(+0.2008907050), QW2(-0.0106824096), QW2(-0.0628026575),
	QW2(-0.0349181518), QW2(-0.2119141221), QW2(+0.0360261388), QW2(+0.1969071478),
	QW2(+0.1066605374), QW2(-0.2392148226), QW2(+0.0705087632), QW2(-0.1214694530),
	QW2(-0.0260956399), QW2(-0.0132216504), QW2(-0.0064838198), QW2(+0.0183214396),
	QW2(+0.0630643666), QW2(-0.0187153798), QW2(+0.0242183208), QW2(-0.0435662009),
	QW2(-0.0793464407), QW2(+0.1112008318), QW2(-0.0937202871), QW2(+0.2422003597),
	QW2(+0.0067041898), QW2(-0.0903074071), QW2(+0.0159644205), QW2(+0.0247620195),
	QW2(-0.0165473893), QW2(+0.0593496785), QW2(+0.2188096792), QW2(-0.0668177530),
	QW2(-0.1746864170), QW2(-0.1429868937), QW2(+0.0071014399), QW2(+0.0068710600),
	QW2(+0.0218166206), QW2(+0.0044040098), QW2(-0.5311222076), QW2(+0.0207342394),
	QW2(-0.0354614519), QW2(+0.0036371101), QW2(-0.1982594579), QW2(+0.2523189485),
	QW2(+0.0578817315), QW2(+0.1455558538), QW2(+0.0892975107), QW2(+0.1402772963),
	QW2(-0.1032564417), QW2(-0.3703809977), QW2(-0.1033039168), QW2(-0.0550931208),
	QW2(-0.0357995108), QW2(-0.2025414109), QW2(+0.0649437830), QW2(-0.2026125491),
	QW2(+0.0055944100), QW2(+0.1603961438), QW2(-0.2342204005), QW2(+0.0114909904),
	QW2(+0.1162417680), QW2(+0.0310527794), QW2(+0.1374855787), QW2(+0.2447229475),
	QW2(-0.0865884796), QW2(-0.0354640186), QW2(+0.0189594198), QW2(+0.2065959722),
	QW2(-0.1103670672), QW2(-0.0232781805), QW2(+0.0867621079), QW2(-0.0771450773),
	QW2(-0.1276995987), QW2(-0.0730983764), QW2(-0.0886346474), QW2(-0.0417867005),
	QW2(-0.0671586767), QW2(+0.0141142895), QW2(-0.0006961900), QW2(+0.0034649901),
	QW2(+0.0676326081), QW2(+0.0003173900), QW2(-0.0339247100), QW2(-0.2108465433),
	QW2(-0.1912676990), QW2(+0.0465254411), QW2(-0.0681187212), QW2(-0.1375474036),
	QW2(-0.0044790199), QW2(+0.2042995840), QW2(-0.0136679700), QW2(+0.0026682401),
	QW2(+0.0151529703), QW2(-0.3425316513), QW2(+0.1332213730), QW2(+0.1179537177),
	QW2(+0.1295095831), QW2(-0.0267966501), QW2(+0.2777352035), QW2(+0.0005928600),
	QW2(-0.0041853702), QW2(+0.0017125900), QW2(-0.1458858550), QW2(-0.0054726601),
	QW2(-0.0090087596), QW2(+0.0041626701), QW2(-0.0016608500), QW2(-0.2454636395),
	QW2(+0.0033378799), QW2(+0.0410813689), QW2(+0.0138942599), QW2(+0.0580311716),
	QW2(+0.0583354197), QW2(+0.0061595300), QW2(+0.0171646997), QW2(+0.0301962793),
	QW2(+0.0042179702), QW2(+0.0103739798), QW2(-0.0002307800), QW2(+0.0056000701),
	QW2(+0.0518700816), QW2(+0.0315168910), QW2(+0.0028609100), QW2(+0.0122891497),
	QW2(+0.0023886501), QW2(+0.0050274702), QW2(+0.0143651301), QW2(+0.0412776917),
	QW2(+0.0169949103), QW2(+0.0023699999), QW2(+0.0727557763), QW2(+0.0405303910),
	QW2(+0.0030942601), QW2(+0.0074323700), QW2(+0.0393459797), QW2(+0.0086057000),
	QW2(+0.0240655206), QW2(+0.0156040797), QW2(+0.0015673500), QW2(+0.0032819000),
	QW2(+0.0054847901), QW2(-0.0011018100), QW2(-0.0041544200), QW2(-0.0029666401),
	QW2(-0.0002997100), QW2(-0.0038758500), QW2(+0.0024967201), QW2(+0.0134439599),
	QW2(-0.0001146100), QW2(+0.0100266105), QW2(+0.0059878798), QW2(-0.0088769104),
	QW2(-0.0007287400), QW2(-0.0332484506), QW2(-0.0031353601), QW2(+0.0018569600),
	QW2(+0.0019585299), QW2(+0.0183187798), QW2(+0.0022657900), QW2(+0.0333526991),
	QW2(-0.0076447399), QW2(+0.0126712201), QW2(-0.0317363515), QW2(+0.0016384500),
	QW2(-0.0006483100), QW2(-0.0021740601), QW2(-0.0016171900), QW2(+0.0005211900),
	QW2(-0.0022155100), QW2(-0.0027570101), QW2(-0.0109959496), QW2(-0.0061237500),
	QW2(+0.2376520336), QW2(+0.1503508985), QW2(+0.1588816345), QW2(-0.0597290583),
	QW2(-0.0029707600), QW2(+0.2457097769), QW2(-0.1738086194), QW2(-0.0209690798),
	QW2(-0.0411632992), QW2(-0.0644416586), QW2(+0.4447581172), QW2(-0.0044672098),
	QW2(+0.1846986711), QW2(-0.0144469896), QW2(+0.0195367709), QW2(+0.2571903467),
	QW2(+0.1046730876), QW2(+0.0789137110), QW2(+0.1837240160), QW2(-0.0073136501),
	QW2(-0.1200252026), QW2(+0.0729637221), QW2(-0.0908323377), QW2(+0.0440938585),
	QW2(+0.0879575163), QW2(+0.4754835069), QW2(-0.0090968003), QW2(+0.0905433372),
	QW2(+0.0925037712), QW2(-0.0364085808), QW2(-0.0013613800), QW2(+0.1759971976),
	QW2(+0.0293547306), QW2(+0.0026721000), QW2(-0.0014662200), QW2(-0.0148406597),
	QW2(+0.0466046892), QW2(-0.0023428099), QW2(+0.0419135988), QW2(-0.0368169695),
	QW2(+0.0650194064), QW2(-0.0071955798), QW2(-0.0985240936), QW2(-0.1044544205),
	QW2(+0.0089766700), QW2(+0.0762872919), QW2(-0.0046990500), QW2(-0.0332554206),
	QW2(-0.0152559904), QW2(+0.0303961001), QW2(-0.1407967508), QW2(-0.0287616104),
	QW2(+0.0395059884), QW2(-0.2765375078), QW2(+0.0787105709), QW2(-0.0029815200),
	QW2(-0.0039810198), QW2(+0.0148132201), QW2(+0.3576582074), QW2(-0.0024088800),
	QW2(+0.0133424103), QW2(-0.0131192300), QW2(-0.1952160746), QW2(+0.0920372307),
	QW2(-0.4153935015), QW2(+0.1274223626), QW2(-0.1927647889), QW2(-0.0766550675),
	QW2(+0.1667004973), QW2(-0.4653015137), QW2(+0.0574068315), QW2(-0.1301286519),
	QW2(+0.0221186504), QW2(+0.1840927154), QW2(-0.3687181175), QW2(+0.3043039143),
	QW2(+0.1285117418), QW2(-0.1899963319), QW2(+0.2544420958), QW2(-0.4911721945),
	QW2(+0.0453421511), QW2(-0.1981555223), QW2(-0.0328610688), QW2(-0.2083260417),
	QW2(+0.0576548204), QW2(-0.1678848118), QW2(+0.1407907903), QW2(+0.0813154876),
	QW2(-0.0857206210), QW2(-0.5804583430), QW2(+0.0613743290), QW2(+0.0200674105),
	QW2(+0.0078189699), QW2(+0.0237209406), QW2(+0.0313707106), QW2(-0.3900490403),
	QW2(+0.0099201500), QW2(+0.0063715698), QW2(+0.0366080403), QW2(+0.0046035498),
	QW2(+0.0098307198), QW2(-0.0077135800), QW2(+0.0007519600), QW2(+0.1105880290),
	QW2(+0.0360212997), QW2(+0.0120579200), QW2(-0.1209452078), QW2(+0.0755306184),
	QW2(+0.0347114988), QW2(-0.1044758931), QW2(+0.0197196398), QW2(-0.0553705096),
	QW2(+0.0235913005), QW2(+0.2459024042), QW2(+0.0038007800), QW2(-0.0253624506),
	QW2(-0.0368094705), QW2(+0.0227568895), QW2(+0.1342164129), QW2(-0.0096512800),
	QW2(-0.0027220601), QW2(-0.0075790002), QW2(+0.0684519708), QW2(-0.0028717199),
	QW2(+0.0385428704), QW2(-0.0071632401), QW2(+0.0316423588), QW2(+0.1600565314),
	QW2(+0.2575782537), QW2(+0.0442660190), QW2(-0.0564263500), QW2(-0.1133637279),
	QW2(-0.1884756982), QW2(-0.0201200899), QW2(-0.0130059998), QW2(+0.1060151234),
	QW2(+0.0358534604), QW2(-0.0989867374), QW2(+0.1693976074), QW2(-0.1049762964),
	QW2(-0.1676527560), QW2(-0.0531739295), QW2(+0.0783165768), QW2(+0.1061244830),
	QW2(+0.1867374927), QW2(-0.0033680601), QW2(-0.1283603162), QW2(-0.0040696901),
	QW2(+0.0314556882), QW2(+0.2221593261), QW2(-0.1222117320), QW2(+0.0203209408),
	QW2(+0.0678787827), QW2(-0.2086196542), QW2(+0.0870196074), QW2(+0.1070956066),
	QW2(+0.1405555755), QW2(-0.0216074102), QW2(-0.0552898198), QW2(-0.0290836301),
	QW2(-0.0748987496), QW2(+0.0019676201), QW2(+0.0087323096), QW2(-0.0036752601),
	QW2(-0.0016514100), QW2(+0.0028271300), QW2(+0.0125257298), QW2(-0.1511037946),
	QW2(+0.0869135484), QW2(-0.1837962568), QW2(-0.0154998098), QW2(+0.1903183311),
	QW2(-0.0022282200), QW2(+0.0880245268), QW2(-0.0161462296), QW2(+0.0026972201),
	QW2(+0.0173934698), QW2(+0.1434545964), QW2(+0.0167414397), QW2(+0.0894104466),
	QW2(+0.1764134467), QW2(-0.1344092637), QW2(+0.1326210648), QW2(-0.0293553099),
	QW2(+0.0012541700), QW2(-0.0102888197), QW2(+0.0261633303), QW2(+0.0032637699),
	QW2(+0.0001026300), QW2(+0.0035888001), QW2(+0.0803546607), QW2(-0.0472479910),
	QW2(+0.0016418700), QW2(+0.0275217108), QW2(+0.0147977397), QW2(+0.0309043098),
	QW2(+0.0290179793), QW2(-0.0029721200), QW2(+0.0076473900), QW2(+0.0187384896),
	QW2(+0.0035842699), QW2(+0.0252855606), QW2(+0.0013104700), QW2(+0.0167203695),
	QW2(+0.0267920103), QW2(+0.0273537897), QW2(+0.0143986801), QW2(+0.0018173000),
	QW2(+0.0211270694), QW2(+0.0056010401), QW2(+0.0234113391), QW2(+0.0245671105),
	QW2(+0.0094246799), QW2(+0.0015505000), QW2(+0.0307092797), QW2(+0.0323081985),
	QW2(+0.0110970503), QW2(+0.0069069802), QW2(+0.0243820492), QW2(+0.0104797399),
	QW2(+0.0202539004), QW2(+0.0228438806), QW2(+0.0094906799), QW2(+0.0021211100),
	QW2(+0.0079685804), QW2(+0.0098379003), QW2(-0.0011941900), QW2(-0.0016788200),
	QW2(-0.0036904200), QW2(-0.0002728400), QW2(+0.0006274900), QW2(-0.0319742188),
	QW2(+0.0226007607), QW2(+0.0323290005), QW2(-0.0177087504), QW2(+0.0382558517),
	QW2(-0.0002029000), QW2(-0.0232170094), QW2(+0.0046199602), QW2(+0.0013636200),
	QW2(+0.0005869200), QW2(-0.0244637504), QW2(+0.0313788205), QW2(+0.0224742703),
	QW2(+0.0301370900), QW2(+0.0025099099), QW2(-0.0255766604), QW2(-0.0084848301),
	QW2(-0.0011938300), QW2(+0.0010637100), QW2(+0.0347003117), QW2(-0.0168182291),
	QW2(-0.0004029200), QW2(-0.0006993200), QW2(-0.0189875606), QW2(+0.0098833200),
	QW2(-0.0017958900), QW2(-0.0012019899), QW2(-0.0031446400), QW2(-0.0012504900),
	QW2(+0.0004094700), QW2(-0.0096146502), QW2(-0.0118903304), QW2(-0.0043045902),
	QW2(-0.0044697099), QW2(+0.0072457702), QW2(+0.0004215300), QW2(-0.0003083400),
	QW2(+0.0001682800), QW2(+0.0001799700), QW2(+0.0040361402), QW2(-0.0112395799),
	QW2(+0.0080583803), QW2(-0.0023815800), QW2(+0.0026268300), QW2(-0.0095630595),
	QW2(-0.0103733800), QW2(-0.0013074999), QW2(-0.0001376900), QW2(-0.0016500000),
	QW2(+0.0032441299), QW2(-0.0082385503), QW2(-0.0043729600), QW2(-0.0059457598),
	QW2(-0.0017527100), QW2(+0.0010283800), QW2(+0.0046880399), QW2(-0.0026529699),
	QW2(-0.0007181300), QW2(+0.0011158300), QW2(+0.0011159400), QW2(+0.0008686700),
	QW2(-0.0002318400), QW2(+0.0009910500), QW2(-0.0019260000), QW2(-0.0179707892),
	QW2(+0.0184477791), QW2(+0.0034368499), QW2(-0.0066327900), QW2(+0.0360097811),
	QW2(+0.0001638100), QW2(+0.0047970298), QW2(+0.0025755900), QW2(-0.0011023300),
	QW2(-0.0000554000), QW2(-0.0350386798), QW2(+0.0266279094), QW2(-0.0049920599),
	QW2(+0.0115224998), QW2(+0.0092357397), QW2(+0.0039043999), QW2(-0.0018673500),
	QW2(-0.0032418801), QW2(+0.0009242100), QW2(+0.0026070699), QW2(-0.0020584899),
	QW2(+0.0007413500), QW2(-0.0001979200), QW2(-0.0045650401), QW2(-0.0055424701),
	QW2(-0.0003562700), QW2(-0.0277456008), QW2(-0.0116936704), QW2(-0.0320267603),
	QW2(-0.0322667211), QW2(+0.0023683100), QW2(-0.0017521899), QW2(-0.0172043592),
	QW2(-0.0015614600), QW2(-0.0249327198), QW2(-0.0001532800), QW2(-0.0106429597),
	QW2(-0.0298977792), QW2(-0.0235644095), QW2(-0.0117675699), QW2(-0.0022236700),
	QW2(-0.0218999796), QW2(-0.0012782200), QW2(-0.0157077909), QW2(-0.0219678804),
	QW2(-0.0010205500), QW2(-0.0004877000), QW2(-0.0336972699), QW2(-0.0304852203),
	QW2(-0.0079479199), QW2(-0.0054216301), QW2(-0.0248510092), QW2(-0.0024369799),
	QW2(-0.0223240703), QW2(-0.0166344792), QW2(-0.0096664699), QW2(-0.0020442801),
	QW2(-0.0063958401), QW2(-0.0082707005), QW2(+0.0022422201), QW2(+0.0011221700),
	QW2(+0.0032792699), QW2(+0.0009984600), QW2(-0.0009492300), QW2(+0.0386130586),
	QW2(-0.0269143507), QW2(-0.0198706407), QW2(+0.0129819503), QW2(-0.0351102203),
	QW2(+0.0004552600), QW2(+0.0206682906), QW2(-0.0021814900), QW2(-0.0016892400),
	QW2(-0.0003336800), QW2(+0.0306563508), QW2(-0.0371378995), QW2(-0.0203043707),
	QW2(-0.0200164896), QW2(-0.0102193700), QW2(+0.0201321002), QW2(+0.0056780400),
	QW2(+0.0002882700), QW2(-0.0013219900), QW2(-0.0374155492), QW2(+0.0149208400),
	QW2(+0.0012993700), QW2(+0.0013001700), QW2(-0.0012354300), QW2(+0.0037325700),
	QW2(-0.1211316213), QW2(-0.0416703299), QW2(-0.0208554193), QW2(-0.1384129226),
	QW2(+0.1558905393), QW2(-0.2009816617), QW2(-0.2281803489), QW2(-0.1482415050),
	QW2(+0.0386331193), QW2(+0.2829300165), QW2(+0.2718910277), QW2(+0.3265484273),
	QW2(+0.1577817798), QW2(+0.0956084728), QW2(+0.4667582512), QW2(-0.0027641600),
	QW2(+0.4759151042), QW2(-0.1924954802), QW2(+0.0253434908), QW2(-0.3661129773),
	QW2(-0.0874325633), QW2(-0.0120922001), QW2(+0.1286861300), QW2(-0.2243928611),
	QW2(+0.0717543587), QW2(+0.2228330374), QW2(-0.2058848888), QW2(+0.0180643704),
	QW2(+0.1434602588), QW2(+0.1963282377), QW2(+0.1691049039), QW2(-0.0914240330),
	QW2(-0.0000417700), QW2(-0.0167285893), QW2(+0.0146649601), QW2(+0.0104088802),
	QW2(-0.0073577100), QW2(+0.0125546698), QW2(-0.0150088100), QW2(-0.0033649399),
	QW2(-0.0103200600), QW2(+0.0371204205), QW2(-0.0795818791), QW2(-0.0888585672),
	QW2(-0.0183034092), QW2(-0.0056443498), QW2(-0.0244834796), QW2(-0.0091240704),
	QW2(+0.0053073200), QW2(+0.2727935612), QW2(-0.0434669703), QW2(-0.1104079112),
	QW2(-0.1069002301), QW2(+0.1053669527), QW2(+0.1654863656), QW2(+0.0100967698),
	QW2(+0.0332262293), QW2(-0.0022319900), QW2(+0.1104015186), QW2(+0.0145096900),
	QW2(+0.0136472797), QW2(+0.0170431305), QW2(+0.0521156006), QW2(+0.1198794991),
	QW2(-0.0016180800), QW2(+0.0154248197), QW2(+0.0002872500), QW2(+0.0177412909),
	QW2(+0.0135263996), QW2(-0.0088911597), QW2(-0.0118833799), QW2(-0.0024931901),
	QW2(-0.0016333699), QW2(+0.0093824901), QW2(+0.0007790800), QW2(+0.0035165900),
	QW2(+0.0111406399), QW2(+0.0111650703), QW2(+0.0054574301), QW2(-0.0027395000),
	QW2(+0.0167452507), QW2(-0.0051568402), QW2(+0.0034109601), QW2(+0.0174840894),
	QW2(-0.0165202003), QW2(-0.0020297600), QW2(+0.0156276394), QW2(+0.0232625809),
	QW2(+0.0030272501), QW2(+0.0044438299), QW2(+0.0114802998), QW2(-0.0073876800),
	QW2(+0.0016241900), QW2(+0.0006964700), QW2(+0.0064439401), QW2(-0.0003872200),
	QW2(+0.0034623900), QW2(+0.0071357298), QW2(-0.0006178500), QW2(-0.0003479500),
	QW2(-0.0032192799), QW2(-0.0002112200), QW2(-0.0012129700), QW2(-0.0435970686),
	QW2(+0.0206476692), QW2(+0.0136977797), QW2(-0.0496143289), QW2(+0.0252279807),
	QW2(-0.0000981000), QW2(-0.0047795898), QW2(+0.0025036801), QW2(+0.0004509800),
	QW2(+0.0001499400), QW2(-0.0306994393), QW2(+0.0521717407), QW2(+0.0038061901),
	QW2(+0.0348529704), QW2(+0.0097043104), QW2(-0.0037785501), QW2(-0.0101484898),
	QW2(+0.0000329500), QW2(+0.0003476000), QW2(+0.0391447283), QW2(-0.0125611899),
	QW2(-0.0003402000), QW2(-0.0008996800), QW2(+0.0218014792), QW2(+0.0276291706),
	QW2(-0.0002641900), QW2(-0.0123015204), QW2(-0.0081779296), QW2(-0.0088388398),
	QW2(-0.0056616301), QW2(-0.0016651300), QW2(+0.0006602100), QW2(-0.0001540500),
	QW2(-0.0027375501), QW2(-0.0022173401), QW2(-0.0053146700), QW2(-0.0075084898),
	QW2(-0.0041479701), QW2(-0.0125029897), QW2(-0.0060474500), QW2(-0.0045977999),
	QW2(-0.0014608901), QW2(-0.0045971801), QW2(-0.0074791298), QW2(-0.0248310808),
	QW2(+0.0034390199), QW2(-0.0000282300), QW2(-0.0113602402), QW2(-0.0222338699),
	QW2(-0.0055823098), QW2(-0.0031897600), QW2(-0.0115370303), QW2(-0.0015189000),
	QW2(-0.0011595699), QW2(-0.0053461199), QW2(-0.0014901900), QW2(-0.0033353800),
	QW2(-0.0046358402), QW2(-0.0026636899), QW2(+0.0034769000), QW2(+0.0029669800),
	QW2(+0.0004143500), QW2(+0.0025281699), QW2(+0.0006711400), QW2(+0.0206218995),
	QW2(+0.0058517400), QW2(-0.0323171616), QW2(+0.0091200396), QW2(+0.0145685896),
	QW2(+0.0008755300), QW2(+0.0108153298), QW2(-0.0009698000), QW2(-0.0002632600),
	QW2(-0.0007058400), QW2(+0.0272301305), QW2(-0.0325854905), QW2(-0.0101943901),
	QW2(-0.0207323208), QW2(+0.0099231703), QW2(+0.0124568697), QW2(+0.0020636700),
	QW2(+0.0007244400), QW2(+0.0007341700), QW2(+0.0044311602), QW2(+0.0030078201),
	QW2(-0.0029835601), QW2(+0.0034219299), QW2(-0.0179891307), QW2(-0.0170639697),
	QW2(+0.0021974400), QW2(+0.0063282698), QW2(-0.0018149200), QW2(-0.0286049396),
	QW2(-0.0305435695), QW2(+0.0059677698), QW2(-0.0007882200), QW2(-0.0046345000),
	QW2(+0.0043181698), QW2(-0.0250988994), QW2(+0.0005658400), QW2(+0.0002630800),
	QW2(-0.0475812182), QW2(-0.0239323806), QW2(-0.0047186199), QW2(-0.0047080000),
	QW2(-0.0213642605), QW2(+0.0001940000), QW2(-0.0273674596), QW2(-0.0090220002),
	QW2(+0.0344269611), QW2(+0.0052607302), QW2(+0.0428374596), QW2(-0.0366824903),
	QW2(-0.0048944098), QW2(-0.0028918700), QW2(-0.0115251401), QW2(+0.0084067499),
	QW2(-0.0273159407), QW2(-0.0170460995), QW2(-0.0082637398), QW2(+0.0017268501),
	QW2(-0.0036534800), QW2(-0.0204317104), QW2(-0.0093485797), QW2(-0.0032547300),
	QW2(+0.0055197300), QW2(-0.0084431302), QW2(-0.0011866600), QW2(+0.0260822792),
	QW2(-0.0186092108), QW2(-0.0133703901), QW2(-0.0205950309), QW2(-0.0135699296),
	QW2(-0.0061215898), QW2(+0.0066919699), QW2(-0.0113847200), QW2(+0.0049500000),
	QW2(+0.0049329801), QW2(+0.0033213000), QW2(-0.0060935901), QW2(-0.0158233196),
	QW2(-0.0113184201), QW2(-0.0199046005), QW2(-0.0049152998), QW2(+0.0194822494),
	QW2(+0.0048775901), QW2(-0.0104649197), QW2(-0.0541116707), QW2(+0.0248052105),
	QW2(-0.0042327601), QW2(-0.0107975602), QW2(+0.0039338199), QW2(-0.0097201997),
	QW2(-0.0424342006), QW2(+0.0860387981), QW2(+0.0896306410), QW2(+0.0614900105),
	QW2(+0.0210677702), QW2(-0.1011655107), QW2(+0.0182901602), QW2(-0.1586171389),
	QW2(-0.1376379430), QW2(+0.1273429394), QW2(-0.2431244254), QW2(-0.2180961072),
	QW2(+0.0277158301), QW2(-0.1483798027), QW2(-0.1498071104), QW2(+0.1860329956),
	QW2(+0.2724809349), QW2(-0.0428497791), QW2(-0.1362701356), QW2(+0.1922591031),
	QW2(-0.3137625158), QW2(-0.0552043803), QW2(+0.0206773691), QW2(+0.1511824131),
	QW2(-0.0936286226), QW2(+0.0138886496), QW2(-0.0764802769), QW2(-0.2297074795),
	QW2(+0.0030264901), QW2(-0.1446604431), QW2(+0.0740608126), QW2(-0.0091366600),
	QW2(+0.0906465873), QW2(+0.0015880100), QW2(-0.0117769996), QW2(-0.0057957401),
	QW2(-0.0149237299), QW2(-0.0079107499), QW2(+0.0600654893), QW2(-0.0752659515),
	QW2(+0.0973579064), QW2(+0.0867038369), QW2(+0.0121339699), QW2(+0.1378766596),
	QW2(+0.0096103000), QW2(-0.0306303594), QW2(+0.0057434700), QW2(-0.0024129499),
	QW2(+0.0097018899), QW2(+0.3831903040), QW2(+0.1050036773), QW2(+0.0908045918),
	QW2(+0.1931084096), QW2(+0.2369344085), QW2(+0.2617244124), QW2(-0.0010732301),
	QW2(-0.0219526608), QW2(-0.0018358600), QW2(+0.0837758631), QW2(-0.0047586602),
	QW2(+0.0148289800), QW2(-0.0168372709), QW2(+0.0359400697), QW2(+0.3267179132),
	QW2(+0.0162023008), QW2(+0.0874305367), QW2(+0.2185897678), QW2(-0.1816809773),
	QW2(-0.1149845272), QW2(+0.3812148273), QW2(+0.0956482664), QW2(-0.0886097774),
	QW2(+0.1451971084), QW2(+0.0639905706), QW2(-0.0868991390), QW2(-0.0624871291),
	QW2(-0.0194060300), QW2(-0.1005632803), QW2(-0.0145538803), QW2(+0.3768775761),
	QW2(-0.0418522991), QW2(-0.1458407044), QW2(-0.0814900473), QW2(+0.0451872386),
	QW2(+0.0236352794), QW2(+0.0627506003), QW2(-0.1780756265), QW2(+0.0411274992),
	QW2(-0.1662566364), QW2(+0.2684105635), QW2(+0.1420486122), QW2(-0.0785768703),
	QW2(+0.1359539628), QW2(-0.0554606915), QW2(+0.0371182598), QW2(-0.0649034381),
	QW2(+0.0282419492), QW2(+0.0219991300), QW2(+0.0573408306), QW2(+0.0456451997),
	QW2(+0.0114092100), QW2(+0.0578867309), QW2(-0.1246928573), QW2(+0.1275097877),
	QW2(+0.0577211007), QW2(+0.0967543572), QW2(+0.0872398764), QW2(-0.0226684697),
	QW2(-0.0153385103), QW2(-0.0660102516), QW2(+0.0412488095), QW2(-0.0225586295),
	QW2(-0.0247483104), QW2(+0.3337196112), QW2(+0.2959333062), QW2(-0.0094102100),
	QW2(+0.0451714806), QW2(-0.3540248275), QW2(+0.0242043007), QW2(-0.0341576897),
	QW2(-0.0111241704), QW2(+0.0196160506), QW2(-0.3145467043), QW2(-0.0433849990),
	QW2(+0.0116457902), QW2(+0.0186350606), QW2(-0.1280859411), QW2(+0.2234292328),
	QW2(+0.0022046501), QW2(-0.0174397696), QW2(-0.0043289298), QW2(-0.0289001092),
	QW2(-0.0300378595), QW2(+0.0003167100), QW2(-0.0090823304), QW2(-0.0215770006),
	QW2(-0.0017384400), QW2(-0.0063815201), QW2(+0.0022036801), QW2(-0.0034083100),
	QW2(-0.0261964798), QW2(-0.0170287807), QW2(-0.0009578500), QW2(+0.0035386900),
	QW2(+0.0022804500), QW2(-0.0023816600), QW2(-0.0123320604), QW2(-0.0089470204),
	QW2(-0.0169301294), QW2(+0.0008480100), QW2(-0.0334909596), QW2(-0.0135892499),
	QW2(-0.0016802200), QW2(+0.0029666401), QW2(-0.0168245193), QW2(-0.0067746900),
	QW2(-0.0151991202), QW2(-0.0130437696), QW2(-0.0002485700), QW2(+0.0022419600),
	QW2(-0.0014663800), QW2(-0.0006492300), QW2(-0.0028515900), QW2(-0.0017211901),
	QW2(-0.0000089300), QW2(-0.0024238401), QW2(+0.0015960700), QW2(+0.0038882401),
	QW2(-0.0048739100), QW2(-0.0068383100), QW2(-0.0236284304), QW2(-0.0116413198),
	QW2(-0.0002589800), QW2(+0.0119869700), QW2(-0.0020687201), QW2(+0.0012252000),
	QW2(+0.0008020000), QW2(+0.0014121800), QW2(+0.0091228997), QW2(-0.0132836802),
	QW2(+0.0110210404), QW2(-0.0110814702), QW2(+0.0128822103), QW2(+0.0012660699),
	QW2(-0.0007946200), QW2(-0.0013244100), QW2(+0.0109585002), QW2(+0.0001809600),
	QW2(-0.0011038100), QW2(-0.0008213600), QW2(+0.0031944900), QW2(+0.0189012196),
	QW2(+0.0002487000), QW2(-0.0415440910), QW2(-0.0088177500), QW2(-0.0611168109),
	QW2(-0.0630621463), QW2(+0.0005636500), QW2(-0.0108475704), QW2(-0.0388079099),
	QW2(+0.0001157200), QW2(-0.0187685192), QW2(-0.0002631100), QW2(-0.0000303400),
	QW2(-0.0568638407), QW2(-0.0364485905), QW2(+0.0004543900), QW2(+0.0008273300),
	QW2(+0.0002074500), QW2(-0.0004736000), QW2(-0.0220024399), QW2(-0.0290057492),
	QW2(-0.0180609096), QW2(+0.0001818400), QW2(-0.0736210570), QW2(-0.0424632616),
	QW2(+0.0000344400), QW2(+0.0004018900), QW2(-0.0408227891), QW2(-0.0039208299),
	QW2(-0.0344040617), QW2(-0.0249034408), QW2(+0.0002486500), QW2(+0.0005384100),
	QW2(-0.0002635300), QW2(+0.0001489200), QW2(-0.0003907600), QW2(-0.0004216400),
	QW2(+0.0005441500), QW2(-0.0004098600), QW2(+0.0003194900), QW2(+0.0156263597),
	QW2(-0.0020426000), QW2(-0.0165617298), QW2(-0.0192121603), QW2(-0.0178850405),
	QW2(+0.0000559000), QW2(+0.0305369105), QW2(-0.0003240900), QW2(+0.0001142500),
	QW2(+0.0002665000), QW2(+0.0113288201), QW2(-0.0018155799), QW2(-0.0317165703),
	QW2(-0.0057185399), QW2(-0.0010976900), QW2(+0.0315716714), QW2(-0.0000355900),
	QW2(-0.0000765900), QW2(-0.0002465500), QW2(-0.0016779799), QW2(-0.0000876600),
	QW2(-0.0001211700), QW2(-0.0000853100), QW2(+0.0195098799), QW2(+0.0241586808),
	QW2(+0.0023283199), QW2(-0.0204736702), QW2(+0.0017940600), QW2(-0.0370581783),
	QW2(-0.0387261398), QW2(+0.0064898701), QW2(-0.0026445501), QW2(-0.0195310507),
	QW2(+0.0025980000), QW2(-0.0034714299), QW2(-0.0005586500), QW2(+0.0050542299),
	QW2(-0.0332056805), QW2(-0.0159914400), QW2(+0.0042878501), QW2(+0.0081250397),
	QW2(+0.0022411100), QW2(+0.0034090700), QW2(-0.0077932202), QW2(-0.0094977599),
	QW2(-0.0057247402), QW2(+0.0015448200), QW2(-0.0487456992), QW2(-0.0203063898),
	QW2(+0.0030933900), QW2(+0.0034273700), QW2(-0.0200664308), QW2(+0.0018413700),
	QW2(-0.0145951305), QW2(-0.0081605297), QW2(+0.0017359100), QW2(+0.0043145898),
	QW2(+0.0030449000), QW2(-0.0008508400), QW2(-0.0041916901), QW2(-0.0029488700),
	QW2(+0.0009543400), QW2(-0.0038649200), QW2(+0.0023331600), QW2(+0.0088470802),
	QW2(-0.0007034500), QW2(+0.0010091300), QW2(-0.0038509900), QW2(-0.0078103598),
	QW2(-0.0005277200), QW2(+0.0104919001), QW2(-0.0030520200), QW2(+0.0023163699),
	QW2(+0.0015439000), QW2(+0.0056796698), QW2(-0.0027751401), QW2(-0.0115645202),
	QW2(-0.0034169301), QW2(-0.0048069302), QW2(+0.0116255004), QW2(+0.0017145200),
	QW2(-0.0008567400), QW2(-0.0021021501), QW2(-0.0060581900), QW2(+0.0001911400),
	QW2(-0.0016505000), QW2(-0.0014456500), QW2(+0.0043210299), QW2(+0.0076799099),
	QW2(+0.0008966500), QW2(-0.0195130203), QW2(+0.0012174100), QW2(-0.0353385583),
	QW2(-0.0372293107), QW2(+0.0041213701), QW2(-0.0012000700), QW2(-0.0174552407),
	QW2(+0.0010156600), QW2(-0.0012270700), QW2(-0.0003346600), QW2(+0.0025358901),
	QW2(-0.0318253711), QW2(-0.0147130201), QW2(+0.0023767101), QW2(+0.0037720201),
	QW2(+0.0010216699), QW2(+0.0021822201), QW2(-0.0053625698), QW2(-0.0113046402),
	QW2(-0.0054036700), QW2(+0.0005221100), QW2(-0.0477262996), QW2(-0.0189060904),
	QW2(+0.0016951400), QW2(+0.0013475000), QW2(-0.0187519304), QW2(+0.0015014200),
	QW2(-0.0125413099), QW2(-0.0058633401), QW2(+0.0012008500), QW2(+0.0023982299),
	QW2(+0.0014154800), QW2(-0.0004752400), QW2(-0.0020046500), QW2(-0.0013843500),
	QW2(+0.0005214000), QW2(-0.0018363700), QW2(+0.0011503800), QW2(+0.0029622300),
	QW2(+0.0027616201), QW2(+0.0019888801), QW2(-0.0031414900), QW2(-0.0026071600),
	QW2(-0.0003710300), QW2(+0.0096929604), QW2(-0.0015950600), QW2(+0.0013619401),
	QW2(+0.0006544000), QW2(+0.0033266000), QW2(-0.0015318900), QW2(-0.0110015301),
	QW2(-0.0019190700), QW2(-0.0017266200), QW2(+0.0098734600), QW2(+0.0008704400),
	QW2(-0.0003693400), QW2(-0.0010485300), QW2(-0.0029878600), QW2(+0.0001724000),
	QW2(-0.0009134500), QW2(-0.0006385900), QW2(+0.0033980701), QW2(+0.0073002200),
	QW2(+0.0004184700), QW2(-0.0172962304), QW2(-0.0034991200), QW2(-0.0300799198),
	QW2(-0.0300529692), QW2(-0.0005674100), QW2(-0.0054889098), QW2(-0.0151969297),
	QW2(+0.0001174800), QW2(-0.0059829499), QW2(+0.0010104300), QW2(-0.0001108500),
	QW2(-0.0257707108), QW2(-0.0135489600), QW2(+0.0004496300), QW2(+0.0001290300),
	QW2(+0.0001327500), QW2(-0.0009490200), QW2(-0.0074043400), QW2(-0.0125728501),
	QW2(-0.0073051201), QW2(+0.0003645500), QW2(-0.0389782600), QW2(-0.0181669891),
	QW2(-0.0001228800), QW2(+0.0004854400), QW2(-0.0171728805), QW2(-0.0024247500),
	QW2(-0.0121910004), QW2(-0.0083276201), QW2(-0.0000015600), QW2(+0.0001582500),
	QW2(+0.0002109500), QW2(-0.0001889700), QW2(-0.0004739700), QW2(-0.0003514800),
	QW2(-0.0000304200), QW2(-0.0007131300), QW2(+0.0001276500), QW2(-0.0020718600),
	QW2(-0.0010922600), QW2(-0.0069836900), QW2(-0.0066639301), QW2(-0.0072503202),
	QW2(-0.0004623100), QW2(+0.0108519802), QW2(-0.0003074100), QW2(+0.0007464000),
	QW2(+0.0002269100), QW2(-0.0041071600), QW2(+0.0036285401), QW2(-0.0112220002),
	QW2(+0.0010080900), QW2(-0.0061376598), QW2(+0.0112262499), QW2(+0.0001218700),
	QW2(+0.0000262800), QW2(-0.0003337600), QW2(+0.0043970998), QW2(+0.0000235600),
	QW2(-0.0004564900), QW2(-0.0001604400), QW2(+0.0064293700), QW2(+0.0059707002),
	QW2(+0.0014358000), QW2(-0.0258425400), QW2(+0.0009251100), QW2(-0.0453605801),
	QW2(-0.0477726199), QW2(+0.0050655198), QW2(-0.0004593600), QW2(-0.0232382491),
	QW2(+0.0015828100), QW2(-0.0059144599), QW2(-0.0004539500), QW2(+0.0031750300),
	QW2(-0.0413713008), QW2(-0.0208803806), QW2(+0.0027738200), QW2(+0.0058541498),
	QW2(+0.0009288400), QW2(+0.0025189400), QW2(-0.0092940098), QW2(-0.0116044497),
	QW2(-0.0052259099), QW2(+0.0009127300), QW2(-0.0588238202), QW2(-0.0261823907),
	QW2(+0.0018916000), QW2(+0.0025402401), QW2(-0.0248009302), QW2(+0.0019827699),
	QW2(-0.0192211792), QW2(-0.0109032001), QW2(+0.0012256500), QW2(+0.0026551101),
	QW2(+0.0018377299), QW2(-0.0006045400), QW2(-0.0024999799), QW2(-0.0016524900),
	QW2(+0.0007240800), QW2(-0.0021907501), QW2(+0.0012585600), QW2(+0.0116107101),
	QW2(+0.0017079400), QW2(-0.0025159600), QW2(-0.0087729497), QW2(-0.0082522295),
	QW2(-0.0004194200), QW2(+0.0142854899), QW2(-0.0018278400), QW2(+0.0013226300),
	QW2(+0.0008568600), QW2(+0.0074816998), QW2(-0.0032685101), QW2(-0.0155946799),
	QW2(-0.0024224301), QW2(-0.0015486400), QW2(+0.0152556300), QW2(+0.0011569100),
	QW2(-0.0005419400), QW2(-0.0011520300), QW2(-0.0055461000), QW2(+0.0002485800),
	QW2(-0.0009674300), QW2(-0.0009021200), QW2(+0.0087968605), QW2(+0.0127888797),
	QW2(-0.0000072900), QW2(-0.0136019299), QW2(+0.0007519700), QW2(-0.0236517508),
	QW2(-0.0243317708), QW2(+0.0013764200), QW2(-0.0026612300), QW2(-0.0140904896),
	QW2(-0.0000347200), QW2(+0.0009832600), QW2(-0.0009042000), QW2(+0.0003422300),
	QW2(-0.0212685000), QW2(-0.0103651201), QW2(-0.0000018700), QW2(+0.0011867800),
	QW2(-0.0008263300), QW2(+0.0016900999), QW2(-0.0026802400), QW2(-0.0104924496),
	QW2(-0.0069889901), QW2(-0.0001490300), QW2(-0.0293703191), QW2(-0.0126425298),
	QW2(+0.0007700700), QW2(-0.0001184700), QW2(-0.0141176498), QW2(+0.0005794700),
	QW2(-0.0077670100), QW2(-0.0035327200), QW2(-0.0000246200), QW2(+0.0002896600),
	QW2(+0.0002788600), QW2(+0.0000288500), QW2(+0.0001003700), QW2(+0.0000931500),
	QW2(+0.0002564300), QW2(+0.0001497200), QW2(+0.0002187500), QW2(-0.0040717898),
	QW2(+0.0011207700), QW2(-0.0008869400), QW2(-0.0139754303), QW2(+0.0027080099),
	QW2(-0.0000929400), QW2(+0.0072866101), QW2(+0.0001884500), QW2(+0.0000531600),
	QW2(-0.0000558300), QW2(-0.0048455801), QW2(+0.0026964401), QW2(-0.0084729902),
	QW2(+0.0011975400), QW2(+0.0034232000), QW2(+0.0081001399), QW2(-0.0000958400),
	QW2(-0.0000886300), QW2(+0.0000939900), QW2(+0.0046269498), QW2(+0.0000005800),
	QW2(-0.0001018200), QW2(+0.0000322300), QW2(+0.0044771400), QW2(+0.0024942500),
	QW2(+0.0565366894), QW2(+0.0466046594), QW2(+0.0229882505), QW2(+0.0301868301),
	QW2(+0.0070020999), QW2(-0.0353334211), QW2(-0.0020919701), QW2(+0.0338115208),
	QW2(-0.0045305700), QW2(-0.0139046796), QW2(+0.0088230995), QW2(-0.0412621908),
	QW2(+0.0195578095), QW2(+0.0298999809), QW2(-0.0157594997), QW2(-0.0334210582),
	QW2(+0.0422469303), QW2(+0.0121872397), QW2(-0.0024566001), QW2(+0.0846822187),
	QW2(-0.0017689799), QW2(+0.0476194210), QW2(+0.0160833206), QW2(+0.0572861694),
	QW2(-0.0124630900), QW2(-0.0673099831), QW2(+0.0487799495), QW2(+0.0194719993),
	QW2(+0.0265979096), QW2(-0.0118888197), QW2(-0.0068121101), QW2(-0.0114778699),
	QW2(+0.0061331498), QW2(-0.0124907997), QW2(-0.0281882491), QW2(-0.0184608195),
